-0.14837423	0.2432589	-0.30498722	-1.5175004	-0.036673725	0.34970188	-0.17889626	-0.5612788	-0.44524837	-0.09733134	0.615772	0.386831	-0.057561085	0.13259718	-1.014802	-0.15177494
0.42201784	0.9989038	0.19030418	-0.89046615	0.37936565	0.11896724	-0.6945109	-0.25386378	-0.03141619	-0.2656279	-0.24256487	-0.3290837	0.4456274	-0.15457682	-0.6448696	0.5559218
-0.16791031	0.6345538	0.022354918	-0.40292448	-0.24322133	0.5591295	0.14797969	0.13560742	0.06576545	0.48405507	0.08939047	-0.3950861	0.80361474	-0.07067759	-0.5250589	0.0041920613
-0.019362397	-0.4084515	0.051112536	-0.25229186	-0.00035777537	-0.23367043	-0.1060105	-0.20332897	-0.063114025	-0.10607564	0.22148257	0.18279569	-0.199445	-0.009085577	-0.19250716	0.07057006
0.04283251	-0.44953468	-0.21105118	-0.054980673	-0.052714314	-0.15848519	0.21764773	0.33567324	-0.23385945	0.15760732	0.7421335	-0.42122844	0.39318255	-0.5569122	-0.16278581	0.2160285
-1.1692781	0.57839036	-0.084541924	0.10483262	-1.0093267	1.4613254	0.64017355	0.06982903	0.34859386	0.9253125	-0.26843736	0.10762005	0.6331883	0.85975605	-0.36003557	-1.3646148
0.27037477	0.49761128	-0.19465862	-0.18237339	0.20767918	0.25120777	-0.1662463	0.067298986	-0.22230865	-0.12611805	0.13874489	-0.23642974	0.2623146	-0.17911549	-0.07319509	0.091217615
-0.5131328	-0.74467516	-0.7678954	0.45751545	-0.24877284	0.3289438	0.5138162	0.18023318	-0.55181324	0.036663562	0.6184481	0.49161446	-0.35311082	0.34915924	0.52771705	-0.8728949
-0.33117923	-0.05037843	-0.18265596	0.050694335	-0.16461104	0.33915827	0.11245352	-0.15846129	-0.03207292	-0.01620057	-0.051364556	0.3519692	-0.30560422	0.39788702	0.20926438	-0.4513503
0.010238904	1.186291	0.07573016	-0.4663481	0.35794005	0.5038531	-1.0718664	-0.7071696	0.09289023	-0.8818253	-0.8258778	0.6974485	-0.89745694	0.94228977	0.11309193	-0.41357085
-0.079057746	0.48522803	-0.08491317	-0.20202069	-0.008013067	0.42146844	-0.09558825	-0.13953494	-0.05583957	-0.0772229	-0.19417292	0.13318123	-0.044611134	0.28544292	0.0075100693	-0.19742
0.13551271	0.027729455	-0.4048129	0.104532495	0.18113633	0.16475315	-0.0067900554	0.1779298	-0.3572708	-0.19324216	0.41345683	-0.1073033	-0.020213136	-0.09589046	0.20071356	-0.095895216
-0.16866122	-1.7587442	-0.43001497	0.38022518	-0.014763094	-0.5987111	0.44969028	0.20080481	-0.5495845	-0.20012464	1.1619792	0.45952085	-0.63042694	-0.19483794	0.33061078	-0.2169316
0.2839824	0.07825654	0.17468256	-0.40661892	0.27066094	-0.3166494	-0.43237814	-0.24410652	0.04188491	-0.35364845	-0.09137196	0.11946433	-0.17723462	-0.08203626	-0.24830505	0.2834231
0.6403898	-0.29991734	0.6321165	-0.7190435	0.28051326	-0.780642	-0.53684545	-0.10226241	0.2847845	-0.17759384	0.3661596	-0.79146856	0.45898873	-0.9809599	-0.80839103	0.96807325
0.26107478	-0.29567796	-0.0018294438	-0.16173518	0.28686866	-0.29531917	-0.059935242	0.13121311	-0.20783606	-0.2034773	0.46750316	-0.22424589	0.00603006	-0.4854784	-0.20253699	0.35885015
-1.4581519	-0.412951	0.5944759	0.022012623	-1.3846815	0.73703223	0.62845826	-0.09538913	0.91166854	1.2075418	-0.35033825	0.14420246	0.59564257	0.68631446	-1.0616796	-1.0521911
0.22923109	-0.48457408	0.42473263	-0.47878915	0.29122052	-0.7483463	-0.4647127	-0.59437037	0.24631998	-0.6563123	-0.1805734	0.4218139	-0.7267	0.069693476	-0.31533778	0.21898156
0.09802861	-0.14390966	0.21125805	-0.24326271	-0.10850927	-0.1381158	0.036812663	-0.00030617253	0.104623005	0.10912994	0.10971039	-0.20889345	0.18490504	-0.23426364	-0.39868945	0.26141167
-0.072055176	-0.1979365	-0.31156394	0.092023924	0.007018279	0.10592313	0.21417968	0.23835798	-0.33921117	-0.041085552	0.3996658	-0.050040662	0.0545469	-0.15965003	0.07159732	-0.07277941
0.0077338773	-0.3660559	0.36215693	-0.36710387	-0.038700033	-0.4130079	-0.15263481	-0.28046644	0.22543056	0.045965724	0.018240022	0.11267404	-0.085792005	-0.06027451	-0.37270036	0.23392779
-0.5358478	0.41512278	-0.5207184	0.2023328	-0.539719	1.2272662	0.6092748	0.48191676	-0.16268449	0.7182156	0.34927347	-0.3142985	0.6768104	0.08916132	0.030870838	-0.74845946
0.08113905	0.63628155	0.061402157	-0.34618455	0.040372334	0.14243516	-0.2899909	-0.20669273	0.1219143	-0.12268938	-0.28676873	0.12760632	0.020594724	0.267819	-0.16600007	0.052757498
0.23540413	0.27095315	-0.8376896	0.12012267	0.35832146	0.46198067	-0.12713563	0.14147831	-0.7344794	-0.7534422	0.5452562	-0.066612564	-0.042000126	0.14752577	0.59404707	-0.1501796
0.19771637	0.2578004	-0.3641174	0.0889551	0.15175453	0.25160226	0.06547674	0.33759543	-0.33885372	-0.101530224	0.33162704	-0.22769554	0.2790452	-0.24505486	0.1901099	-0.029875273
0.24442017	-0.3828357	0.2997601	-0.3389733	0.09968998	-0.53398085	-0.23666486	-0.18348758	0.12895323	-0.08632816	0.18126126	-0.12334473	-0.02293226	-0.4324397	-0.4149252	0.44294012
-0.47558853	-0.38341403	-0.10186036	0.08261925	-0.40781456	0.15000388	0.31261557	-0.0027438847	-0.013195782	0.27604616	0.11268921	0.3257426	-0.089421	0.3223683	0.008910213	-0.4115958
-0.12235318	-0.23196831	-0.12530631	0.048423428	-0.08055358	0.039849292	0.21114558	0.24611753	-0.16002865	0.08814663	0.41938898	-0.17547482	0.18000089	-0.1560789	-0.05208861	-0.09976483
1.5104785	1.8588935	-1.6834415	0.12342164	1.5626867	1.732433	-1.2329367	1.2547581	-1.6097558	-1.5923975	1.2288003	-1.1369096	1.0317175	-1.0014082	1.4257393	0.5100116
0.36284435	0.26284474	0.1047768	-0.35337147	0.1447755	-0.13736045	-0.215173	0.0773171	-0.07846795	-0.045431312	0.15954418	-0.45746773	0.3659802	-0.4367089	-0.34153232	0.42838672
-0.20295882	-0.4795983	-0.14762445	0.09549915	-0.07217638	-0.1109164	0.10831106	-0.099989936	-0.14376952	-0.035331685	0.2227629	0.3302554	-0.31772476	0.18218435	0.13100104	-0.22258978
1.0388207	1.1221381	-1.5106155	0.2676721	1.2822975	1.3003402	-0.9334165	1.0518342	-1.4377608	-1.4296926	1.086172	-0.5715365	0.18129912	-0.5910041	1.0719838	0.14642146
-0.09054578	-1.964487	0.037809785	0.12670149	0.24886535	-0.9849063	0.1398386	-0.67836577	-0.27053508	-1.3133798	1.0684851	0.73450345	-1.3919646	-0.031198224	0.1918325	0.029104395
-0.2713058	-0.13133678	-0.40913984	0.3270524	-0.21649747	0.40077856	0.39588872	0.1912904	-0.26284063	0.16304508	0.32780796	0.23149973	-0.0637748	0.1481655	0.27802363	-0.5296163
0.20192283	-0.27325538	-0.34689775	0.10473385	0.3289564	-0.16912034	0.03678867	0.20440961	-0.393612	-0.35665953	0.50886375	0.08793963	-0.23473035	-0.23332782	0.20794761	0.00861095
-0.422585	0.33899894	0.12256516	-0.1486667	-0.3787381	0.48601282	0.04542992	-0.2582957	0.22968602	0.3077172	-0.31994158	0.25653735	0.0512009	0.51932675	-0.14595193	-0.42777
-1.3760803	-1.1557862	-0.36634326	0.56219536	-1.3395832	1.236094	1.1879578	0.84206444	0.46642512	1.4478345	0.9360493	-1.0384775	1.274696	-0.23918891	-0.7716073	-1.1809192
-0.069133334	-0.40006748	0.05435781	-0.093561254	0.02107223	-0.13152924	-0.01037847	-0.06273696	-0.059206136	-0.09124733	0.19380331	0.13801014	-0.15322411	-0.063010834	-0.0955582	0.051342316
0.25896478	0.22618665	-0.82289684	0.1800091	0.31069773	0.30019307	0.078927904	0.6561766	-0.7782785	-0.17618749	0.9814424	-0.5082768	0.36904752	-0.49379057	0.37804878	0.10419042
0.28905722	-0.70843154	0.5644172	-0.46828952	0.17355268	-0.7760302	-0.31645578	-0.30057004	0.37292507	-0.28370598	0.08560176	-0.010164402	-0.16446248	-0.39567888	-0.55432266	0.51531285
0.055126723	-0.43229306	0.100637004	-0.16957663	0.08048689	-0.30282128	-0.017493058	-0.05305566	0.017703114	-0.04903115	0.25163394	0.06440582	-0.1327505	-0.23078702	-0.14536108	0.17850973
0.210758	0.14847934	-0.1274048	-0.14546536	0.10531234	0.1119766	-0.086418785	0.08940523	-0.18463834	-0.059855238	0.29172456	-0.31122428	0.21520382	-0.25152496	-0.109233186	0.1466774
0.28556797	-0.10271227	0.2996411	-0.36827254	0.20927823	-0.42447528	-0.28311747	-0.032360185	0.117482625	-0.14330524	0.09967713	-0.28492683	0.09054111	-0.3810055	-0.47627822	0.4875647
0.1513564	-0.1255337	0.44591555	-0.4699351	0.041976642	-0.45231405	-0.46620864	-0.46671602	0.2915975	-0.26253513	-0.20017928	0.13947903	-0.24415725	0.073951274	-0.45691666	0.34179354
0.34104353	-0.15225096	0.24684903	-0.41231778	0.32213464	-0.5114557	-0.3795292	-0.29783204	0.03255426	-0.34782284	0.000860522	0.033560164	-0.21950679	-0.20832562	-0.21541926	0.37905404
-0.27193275	-1.0160156	-0.14550224	0.21135485	-0.023233334	-0.30844492	0.18470755	-0.09924816	-0.21878333	-0.250519	0.3737299	0.5425642	-0.5690561	0.1641832	0.2558865	-0.28761047
0.26390654	-0.42134315	0.20246474	-0.303839	0.11327349	-0.41717428	-0.14999905	-0.08918234	0.09945354	-0.20307796	0.2212633	-0.04751415	-0.06614176	-0.337001	-0.29776132	0.30470875
-0.82791036	0.2692716	0.4969838	-0.4062	-0.56343335	0.115974374	-0.3415571	-0.7142915	0.60498273	0.18697508	-0.7315882	0.9106066	-0.7942458	1.010185	-0.2507336	-0.7811455
-0.5528997	0.751556	0.5021704	-0.52836907	-0.30183142	0.10200033	-0.7810051	-0.7498849	0.5992323	-0.16632326	-0.8338704	0.8178541	-0.8622685	0.97579694	-0.1842695	-0.5810077
-0.44577494	0.22002064	0.51759344	-0.35044208	-0.40883037	0.0046762954	-0.18999197	-0.5977788	0.5483904	0.20676082	-0.6519246	0.49737963	-0.33883333	0.6987869	-0.3602055	-0.27345708
-0.6087238	-0.6447048	-0.03536696	0.17408022	-0.5804266	0.21950933	0.53438437	0.16477786	0.11534513	0.63379574	0.2942559	-0.06980998	0.28179482	-0.058738727	-0.23576212	-0.28817272
0.105956644	-0.15359847	-0.2044512	-0.0055914912	0.015248698	-0.021365276	0.14065975	0.3176737	-0.26869994	0.08895269	0.5941971	-0.39245966	0.32903928	-0.43794286	-0.047596928	0.16183732
0.35644436	-0.57080644	0.4447316	-0.41417426	0.33451194	-0.6854814	-0.3886242	-0.35346916	0.21604854	-0.4454862	0.10103936	0.0028937538	-0.31804213	-0.30624416	-0.36027437	0.42507136
0.61120033	-0.22845322	0.1411332	-0.37403074	0.6534143	-0.5549645	-0.46362317	-0.045543574	-0.20174377	-0.54789317	0.38287598	-0.27665487	-0.13117656	-0.54429007	-0.2416668	0.53655815
-1.1158544	-0.867937	-0.6746008	0.5671746	-1.0799652	1.197644	1.1522954	0.8661896	0.0549599	1.2054629	0.95274186	-0.95894885	1.1023369	-0.20219782	-0.4053893	-1.0602266
-0.108554505	-0.21946348	0.46037304	-0.37001354	-0.12525232	-0.2927831	-0.122319214	-0.2662529	0.33357397	-0.044501137	-0.13151062	0.18945107	-0.1447335	0.02807396	-0.40130386	0.12905982
-0.3043885	-0.032215897	0.17732632	-0.10262197	-0.39701033	0.044707473	0.06567916	-0.08288831	0.21718699	0.3460373	-0.13419287	0.10295255	0.08513243	0.16056916	-0.28387013	-0.0832164
0.094925545	0.72810847	0.029555418	-0.33908647	0.35687113	0.31405288	-0.930819	-0.44910732	0.06316258	-0.7245069	-0.5064241	0.37341946	-0.6261282	0.5257655	0.04701607	-0.19326769
-1.2052606	-0.9269528	-0.42420062	0.44171393	-1.1789666	1.0852536	1.0599587	0.65708804	0.33112335	1.2526102	0.7438698	-0.79519033	1.1269542	0.027527818	-0.5562356	-1.0557867
-0.26128498	-0.4109515	0.22660273	-0.12179965	-0.2775614	-0.18682733	-0.045487236	-0.29036644	0.3253729	0.12579344	-0.22977914	0.33138543	-0.27621004	0.24337283	-0.19680853	-0.161114
0.9685063	-0.7013002	0.93292105	-0.9935904	0.58924997	-1.1122237	-0.8327263	-0.28361756	0.49445572	-0.38370904	0.7270669	-1.0231196	0.5598878	-1.2303431	-1.0428634	1.1887624
0.99298126	1.5169585	-1.3541313	0.35676363	1.1270415	1.4301959	-0.71993923	0.94676876	-1.2988225	-1.157701	0.7336307	-0.70250076	0.48879147	-0.42977265	1.1687707	-0.010777
-0.44464257	-1.8738531	-0.22127223	0.40350464	0.12689346	-0.65381306	0.34445015	-0.4734666	-0.369243	-0.9959578	0.51729095	1.184195	-1.5173912	0.35445172	0.4788115	-0.3860539
0.7622724	0.12136125	0.11261906	-0.6051574	0.6507523	-0.5016563	-0.68084675	-0.011454803	-0.12291881	-0.59926313	0.39277178	-0.656813	0.3532289	-0.7742113	-0.39079344	0.81247365
0.2167241	-0.41065067	0.22902212	-0.24452263	-0.00861417	-0.3364903	0.065387696	0.23643519	0.046047285	0.14182767	0.5928669	-0.6400134	0.48162714	-0.61385703	-0.49321315	0.35864264
0.29653996	-1.3093413	0.989474	-0.57899725	-0.26006582	-0.7293174	0.014351085	0.113498315	0.9240431	0.4545887	0.64065003	-0.90460354	0.7849906	-1.0755188	-1.1332563	0.71997696
0.069245115	-0.12697616	0.010576528	-0.132683	0.14503917	-0.25557885	-0.12971738	-0.095237434	-0.041260745	-0.2827668	0.08678155	0.07762118	-0.22297078	-0.040621515	-0.102897376	0.13803999
-1.0439391	0.0084372265	0.9186272	-0.64007294	-0.732993	-0.61145073	-0.7915399	-1.1787145	0.93093294	-0.08467701	-1.0908711	1.4408886	-1.4781784	1.4423605	-0.34393334	-0.7757025
0.25887457	0.8559765	-0.49941888	0.056274157	0.4313651	0.7401231	-0.301613	0.0847225	-0.43631655	-0.48380488	0.09434431	0.07267192	-0.118461885	0.29444143	0.5213253	-0.36648336
-0.31722736	-0.17162204	0.36421227	-0.18045694	-0.31353974	0.0004873679	0.0025216884	-0.30519134	0.3862086	0.20508914	-0.2193273	0.2698731	-0.15028471	0.29023954	-0.28577006	-0.18850629
-0.5258826	-0.25685197	0.28087056	-0.10419656	-0.5357432	0.08130371	0.24550587	-0.09011353	0.34330764	0.5025892	-0.03367699	-0.033592477	0.28573817	0.16367583	-0.471244	-0.21798703
0.5392421	-0.26029536	-0.033443004	-0.21674815	0.555578	-0.45870343	-0.3253343	0.23854281	-0.33248287	-0.618909	0.9529958	-0.34886354	-0.08632743	-0.5914618	-0.11808019	0.4876144
-0.08032525	-0.01556004	0.18067212	-0.23740888	-0.074647285	-0.07651805	-0.1326567	-0.18840666	0.16121216	0.049059726	-0.15344048	0.11354415	-0.15919006	0.15034612	-0.263778	0.049471375
0.03544242	-0.24530016	-0.36134094	0.13329773	0.20908108	0.0138596	0.09699064	0.16369635	-0.3957484	-0.38479957	0.40748996	0.07721532	-0.18958841	-0.002409399	0.32338932	-0.122888654
-0.29474536	0.20500076	-0.2210474	0.06135543	-0.34482676	0.6014569	0.27291209	0.31080642	-0.06864376	0.43964142	0.20089822	-0.46060804	0.6679294	-0.14612772	-0.10329184	-0.28105813
0.1092206	-0.27653542	0.2773284	-0.25106072	0.18102388	-0.43743762	-0.3543943	-0.3968568	0.13183774	-0.38121432	-0.115049705	0.25734177	-0.4584068	0.073091574	-0.18651584	0.22358319
-0.3178449	-0.12790993	-0.17121659	0.15379216	-0.21992788	0.24216026	0.15052965	-0.058426075	-0.020098876	0.07898505	-0.020332148	0.33790338	-0.24165048	0.36408237	0.1245574	-0.38058352
-0.6656908	-1.2638664	-0.60003644	0.5864578	-0.34369183	0.15089197	0.76736146	0.19730973	-0.42474106	0.12496829	0.57052094	0.65821385	-0.5181209	0.38864285	0.48115695	-0.7913493
-0.8775864	-0.639164	-0.5087875	0.25924504	-0.8812679	0.8805972	0.82639754	0.6919677	-0.19864354	1.0505528	0.90633225	-0.9695768	1.0434626	-0.42777812	-0.5937932	-0.6238573
0.4131585	-0.24047236	0.1390001	-0.2884005	0.28848854	-0.4117292	-0.1813223	0.09949125	-0.038640674	-0.17468739	0.45105812	-0.40253353	0.25635067	-0.66260374	-0.33179453	0.5407966
0.9335086	0.10847878	0.32120478	-0.68613654	0.6998574	-0.5897337	-0.79524356	-0.10123041	-0.045128826	-0.57540977	0.2493192	-0.6192126	0.25416878	-0.8490027	-0.43847752	0.8926582
-0.89031047	-0.33415696	0.20572631	0.07086486	-0.9738986	0.7245827	0.6850008	0.24818128	0.62656045	1.0318972	0.01215476	-0.36373425	0.799233	0.16476908	-0.84366673	-0.6520847
-0.31322452	0.25818315	0.6776227	-0.48280683	-0.35197264	-0.11797495	-0.33977446	-0.5731873	0.6671505	0.22022703	-0.5956581	0.3818659	-0.276374	0.52604485	-0.58825004	-0.013029127
0.2907692	-0.11399492	0.41840854	-0.44292605	0.13987486	-0.46342263	-0.31490776	-0.19453616	0.22019693	-0.119502515	-0.04992023	-0.14267546	0.035564642	-0.2892445	-0.46656406	0.43619934
-0.48425555	-0.21687225	0.076864384	0.06487677	-0.3198605	0.18086174	0.08170651	-0.38851023	0.2224308	0.07718422	-0.32862124	0.68116826	-0.46186426	0.72426546	0.06798465	-0.55683684
-0.3159442	-0.10466526	0.3628682	-0.25939614	-0.34808153	-0.075016834	0.053427637	-0.31357434	0.4361904	0.24239445	-0.25238827	0.2540929	-0.019254785	0.28147295	-0.42591307	-0.11684381
-1.0561868	-1.4841629	-1.4558084	1.1972916	0.23444632	0.65685564	1.1919413	0.19468236	-1.211541	-1.0948497	1.0590587	1.3918164	-1.4372623	1.15464	1.2905413	-1.409559
0.1194953	0.10435198	-0.25427923	0.02009176	-0.15718041	0.26121634	0.30791274	0.64132786	-0.2087576	0.45696217	0.726323	-0.9840709	0.9535789	-0.8922613	-0.32204536	0.24916218
0.14429563	-0.5222199	0.37455207	-0.25972247	0.1957836	-0.5904518	-0.34832123	-0.4350325	0.3045255	-0.31991175	-0.13083793	0.38040754	-0.4983794	0.14526202	-0.19808488	0.19100013
-0.666131	0.53051275	0.39515486	-0.2563206	-0.5889684	0.44312468	-0.040532354	-0.52960813	0.5303851	0.40343913	-0.6835843	0.50878257	-0.20330474	0.8270594	-0.3321784	-0.566002
-0.2071276	-0.54089284	-0.26531908	0.26448447	-0.061632022	-0.0013721283	0.18467553	-0.028053476	-0.2449826	-0.015527085	0.22872654	0.34671634	-0.28155348	0.17641084	0.25900975	-0.35105476
0.13218759	-1.6556376	0.14714499	-0.022040157	0.49361354	-0.9068616	-0.08409515	-0.60665435	-0.109949544	-1.2099646	0.8930792	0.5377044	-0.96988285	-0.27876726	0.05920283	0.17984262
-0.15211135	-0.5944923	0.03042258	0.038044393	-0.049073298	-0.21617727	0.05802623	-0.11189826	-0.0710591	-0.15372503	0.15633178	0.31180012	-0.38289472	0.034909792	0.08486416	-0.04217371
0.7380126	0.8311158	-1.3234917	0.55796814	1.0506024	1.0556663	-0.5747183	0.79120964	-1.1817447	-1.2650877	0.91782695	-0.26534745	-0.10434383	-0.21769823	1.112658	-0.2187948
-0.3233123	0.10341918	-0.03646072	0.076212734	-0.32075918	0.42284232	0.31839272	0.17795873	0.06503982	0.38300982	0.04529483	-0.10265264	0.27661216	0.11375425	-0.12934637	-0.3660494
-0.3836268	0.15292434	-0.44469324	0.08581764	-0.43548453	0.7401311	0.54821235	0.49123418	-0.29995477	0.61757076	0.5710997	-0.84772485	0.88194	-0.48086396	-0.35014895	-0.33478612
0.249351	-0.067587465	-0.017735261	-0.15411137	0.21875845	-0.1993065	-0.17318521	-0.0068567707	-0.07792671	-0.22697152	0.27204216	-0.1136089	-0.024477813	-0.36553997	-0.13896699	0.27468076
0.2502958	0.1700899	0.08641809	-0.30913168	0.35733575	-0.24208705	-0.44565463	-0.1811112	-0.08544654	-0.42292464	-0.069598116	0.0023008115	-0.18678166	-0.03762722	-0.11963448	0.30998024
-0.3085944	-0.16929093	-0.112117	0.06696997	-0.27024704	0.16225715	0.24788858	0.06279395	-0.03208235	0.24733846	0.11834146	-0.01714165	0.15962389	0.051564697	-0.10869928	-0.27750537
-0.92247516	-0.25121984	0.1965723	0.049309004	-1.0155245	0.7313887	0.64126974	0.22659199	0.47950456	0.98266333	0.06976718	-0.3954596	0.79407555	0.07781685	-0.7121592	-0.6135126
0.5719494	-0.14499274	0.34508604	-0.5046237	0.40155083	-0.49200794	-0.31154498	0.20997296	-0.0061810734	-0.15008163	0.7540913	-0.9581261	0.69981706	-0.88372236	-0.45964608	0.6986485
-0.19041939	-0.24531348	0.31492814	-0.16872181	-0.10372368	-0.22263433	-0.05733865	-0.28213388	0.30844334	0.037253704	-0.16263625	0.30187786	-0.20142163	0.21247298	-0.2642655	0.007669879
0.052367166	-0.023197135	0.038426936	-0.21034206	0.102346346	-0.12191577	-0.24471857	-0.21072623	0.002857749	-0.2198094	-0.07590317	0.15540367	-0.20143995	0.06164828	-0.12824602	0.09110773
0.1669786	-0.15885909	0.0016010379	-0.070382014	0.13854977	-0.23747386	-0.036621936	0.015496792	-0.1560199	-0.1588312	0.2123645	-0.00040072558	-0.037428834	-0.1815725	-0.09906435	0.10139421
-0.6065752	0.5708666	0.758226	-0.6166533	-0.4017596	-0.33224013	-0.87316865	-0.7190413	0.6322346	-0.15136564	-0.8030254	0.77369255	-0.8432037	0.8709835	-0.56131494	-0.4453296
0.17755653	1.199188	0.4982946	-0.89771634	0.16264763	0.3163621	-1.234027	-0.45766544	0.40717232	-0.30415055	-0.718285	0.06778951	-0.11026678	0.33194926	-0.44332904	0.15980238
-0.05174006	-1.2527674	-0.91321653	0.5796818	0.7525094	-0.32784417	0.16995499	-0.21901314	-0.88936555	-1.2365209	0.69108295	1.1716098	-1.3158091	0.6727813	0.8757855	-0.7646608
0.26901892	-0.00379927	0.17125829	-0.31938276	0.08952606	-0.15859161	-0.17396776	0.07628405	-0.028141066	0.03938962	0.37111512	-0.6219536	0.44872236	-0.577645	-0.42334324	0.38148242
-1.0586902	0.7237057	1.2692065	-0.84289694	-1.0570627	-0.42199868	-0.74955946	-0.98540044	1.1363423	0.52917445	-1.0708486	0.9780918	-0.8012923	1.0717744	-1.1724981	-0.5345654
-0.38203117	-0.50919616	-0.8852555	0.63865125	0.044024237	0.48538104	0.4727616	0.23790513	-0.75840926	-0.2917771	0.61806446	0.5818123	-0.52728397	0.48807982	0.81133133	-0.84734786
0.3455718	-0.44922873	0.5772403	-0.50325614	0.14565958	-0.6067348	-0.2487204	-0.055237778	0.28013977	-0.03836079	0.25875604	-0.3680544	0.1617772	-0.55624384	-0.6097956	0.56220317
-0.5569669	-0.4967039	0.06960626	0.113338344	-0.36905855	0.039555404	0.22538754	-0.15986088	0.1338357	0.17350675	-0.108444214	0.5055468	-0.2933125	0.51105404	-0.0008038095	-0.52430165
0.11083818	0.61024743	-0.32536283	-0.03046362	0.14497532	0.5048708	-0.08782176	0.20609939	-0.22769745	-0.08865028	0.029573476	-0.1912377	0.2875961	0.025177302	0.107790396	-0.041557
0.11499963	0.022057913	0.6765591	-0.6298865	-0.113787204	-0.4624479	-0.31990206	-0.37317795	0.594025	0.10765475	-0.3297267	-0.23079802	0.2261901	-0.14029191	-0.76478994	0.5052742
-0.35593706	0.34282237	0.76842403	-0.6150708	-0.39418808	-0.24876693	-0.46629414	-0.6911223	0.72480124	0.22066322	-0.782739	0.5141744	-0.42930338	0.59593683	-0.64220226	0.019119147
-0.23208989	-0.5206386	-0.24978518	0.20534469	-0.50375164	0.30452096	0.66666436	0.77665144	-0.13790733	0.7678902	1.1771595	-1.1484635	1.0736753	-1.1103654	-0.42983446	-0.0034346976
0.32711554	-0.39551464	0.61292666	-0.5393881	0.08420573	-0.62796545	-0.34976575	-0.23033036	0.38384047	0.022350494	0.07526855	-0.3308919	0.23766117	-0.52713364	-0.611486	0.5904658
0.13563782	0.41896358	0.02161805	-0.33488008	0.13262096	-0.003095349	-0.28415835	-0.23280874	0.07345642	-0.21225952	-0.2823709	0.16892807	-0.22067137	0.22566082	-0.022968518	0.039289434
-0.5692643	-0.39230344	-0.09453502	0.07319885	-0.23285834	-0.003107009	0.16288516	-0.24521708	-0.0018220495	-0.052793354	-0.07793666	0.7110509	-0.5350472	0.659713	0.18893546	-0.7608014
0.5706742	0.7554839	-0.4393425	-0.15067579	0.6339722	0.36215603	-0.5665438	0.074420236	-0.4734386	-0.74309736	0.11607981	-0.1322001	-0.003637763	-0.060868178	0.39570224	0.11364631
-0.25577942	0.42028853	0.593421	-0.41052446	-0.37878993	0.025526496	-0.09826041	-0.3001427	0.52507097	0.44517583	-0.4234039	0.0518642	0.20669407	0.18986057	-0.761387	0.00090998807
-0.3568618	-0.68970895	0.43793672	-0.1324028	-0.38136712	-0.3687805	0.0061011454	-0.37676963	0.5055666	0.18597841	-0.1819443	0.4502025	-0.32829916	0.2701373	-0.33317614	-0.0749139
-0.51003516	-0.7851722	-0.7323761	0.6145071	0.13988082	0.2566053	0.3966496	-0.14648263	-0.58762115	-0.72225064	0.2972559	1.0210643	-1.1058404	0.9348411	0.8100524	-0.99379605
-0.28861743	-0.42922643	0.075769104	-0.03724012	-0.37959084	-0.020142669	0.31413317	0.20699559	0.15808617	0.44890174	0.26354182	-0.32365364	0.38746357	-0.20988174	-0.3441829	0.033950206
-0.3589543	-0.39168924	-0.22396682	0.23522314	-0.27400693	0.1986088	0.3289799	0.17561257	-0.09289747	0.23140462	0.25722402	0.07964144	0.09324195	-0.0007031867	0.15762345	-0.3189196
-0.6240266	-0.541481	0.10975801	0.05032102	-0.34057793	-0.07060915	0.12154513	-0.44481468	0.20548096	-0.0998881	-0.29920372	0.79746544	-0.7556569	0.763896	0.2047889	-0.5827672
-0.33845663	-0.7049708	-1.3098328	0.9021429	0.5764554	0.36740854	0.41777298	0.016931158	-1.1065671	-1.244777	0.82073754	1.0443828	-1.215412	0.74429035	1.2311378	-0.96251553
0.122762345	0.38555548	-0.09557143	-0.17733884	0.20279042	0.21204002	-0.4148824	-0.21029778	-0.12438302	-0.362026	-0.1614615	0.30062824	-0.41987726	0.31475958	0.17931315	-0.20686282
-0.035246838	0.3343542	-0.117982395	-0.06423056	0.17430243	0.38912407	-0.28032893	-0.25084174	-0.113260046	-0.30622995	-0.2500407	0.33107924	-0.37928846	0.44889164	0.24475574	-0.33775833
0.26594073	0.09958201	-0.2353283	-0.07685484	0.29241666	-0.029480914	-0.043858863	0.3184249	-0.30396256	-0.19839299	0.44156313	-0.3063295	0.17596664	-0.45118383	0.024465831	0.15366893
-0.42537603	0.16658564	0.28362006	-0.23943596	-0.14779282	-0.156683	-0.58460414	-0.722121	0.366524	-0.44496763	-0.61156094	0.9062069	-0.984279	0.8958117	0.044025544	-0.59177595
-0.4700185	-1.1172168	-1.0210834	0.6747785	0.5394939	-0.0039546057	0.49971807	-0.23931673	-1.0098772	-1.1519083	0.7628348	1.3121355	-1.2959788	1.05264	0.95355636	-1.0545261
-0.4959005	-0.7465004	-0.57546365	0.48226276	-0.24576141	0.29333732	0.44126922	0.18069445	-0.401669	0.10573654	0.5358772	0.4516471	-0.26644364	0.4367063	0.4538652	-0.7582416
-0.43254656	0.38763154	0.5468569	-0.4031013	-0.41854015	-0.047453355	-0.08748183	-0.30630884	0.53894967	0.22851846	-0.39159834	0.2814208	-0.024774969	0.41609466	-0.7481161	-0.01167024
0.5308994	0.83726525	-0.5923234	0.06696843	0.6287275	0.5582975	-0.50586075	0.18057737	-0.57875025	-0.74561626	0.12729223	-0.20860678	-0.035541438	-0.016918793	0.523789	0.00816267
0.3807441	0.32849634	-0.114084885	-0.18788312	0.24239871	0.08675267	-0.18887572	0.16063254	-0.19444466	-0.110206015	0.23956124	-0.35222438	0.29116026	-0.3786801	-0.0036801877	0.30008322
-0.8470657	0.32667005	0.79702806	-0.58768	-0.73908263	-0.1076169	-0.38932002	-0.83348584	0.8744011	0.32198796	-0.92387486	0.7227442	-0.49078336	0.8704103	-0.64630175	-0.4564909
-0.47191593	-0.3173438	-0.053785343	0.102714695	-0.46329084	0.34856656	0.40553385	0.12914889	0.11145311	0.4203762	0.19844931	-0.018260367	0.1553421	0.11541951	-0.064959794	-0.4193958
0.16543838	-0.4100748	-0.0580008	-0.07997941	0.29165006	-0.29595885	-0.12389539	-0.060468674	-0.2703847	-0.41030815	0.6039634	0.009345421	-0.3149624	-0.2541454	0.05663818	0.12695152
-0.2969699	-0.078825854	-0.35170624	0.31487113	-0.13318723	0.38065395	0.30507427	0.10795714	-0.25426576	0.092386164	0.20237157	0.17917597	-0.09107655	0.18131891	0.2638187	-0.45063987
0.3575483	-0.42115948	0.34304073	-0.35851333	0.0935072	-0.45938095	-0.15478286	0.02988715	0.21149263	0.079225235	0.23687664	-0.45320484	0.2912824	-0.63336515	-0.5378947	0.49718758
-0.05380136	-1.2864239	0.6451589	-0.20278135	-0.45788267	-0.30285704	0.39499968	0.5585717	0.75204587	0.6873072	0.9551352	-1.3017144	0.9920668	-1.1378131	-0.9774894	0.42052037
-0.14639585	-0.31796372	0.67951626	-0.4493094	-0.42992806	-0.37387666	-0.09227582	-0.418058	0.6082237	0.4197738	-0.29793164	0.04531234	0.0921263	0.062688634	-0.6130216	0.17841977
-0.053023804	-0.018790796	-0.16428177	0.036942616	-0.044317137	0.09515646	0.069299035	0.13929863	-0.1801761	0.0041137226	0.2156592	-0.00089671614	0.036229264	0.0058513773	0.03383581	-0.09866866
0.015236256	-0.15426108	0.39555392	-0.25181118	-0.054419886	-0.23234607	-0.12781653	-0.22519815	0.3153315	0.06267152	-0.04292788	-0.014226396	0.088644475	-0.18354093	-0.3419004	0.25241432
0.66258466	0.37778676	0.16359867	-0.53557926	0.6019893	-0.34635323	-0.7513583	-0.02363117	-0.06305053	-0.5045835	0.039347548	-0.3762247	0.2227991	-0.42920354	-0.3024278	0.61932015
-0.5200477	-0.29687178	0.09030531	0.10492489	-0.32453096	0.11254486	0.17715627	-0.2841262	0.09764838	-0.014974266	-0.21895924	0.58773303	-0.53721213	0.6149144	0.12644358	-0.57578486
-0.91488653	0.61027384	1.1557351	-0.8485693	-0.6718546	-0.35988408	-0.576764	-0.9706244	1.0566583	0.18180437	-0.9892276	0.9628064	-0.7147227	1.0847999	-1.0424566	-0.22657904
-0.25968608	-0.30965975	-0.5512303	0.4380755	0.07823028	0.21659417	0.2799003	0.030582184	-0.47980207	-0.31773984	0.23574437	0.34297255	-0.45342085	0.32549143	0.5619367	-0.5073545
0.2169204	-0.3564102	0.085712045	-0.14159492	0.113726795	-0.26185253	0.048081987	0.29608098	-0.05922216	0.0084328875	0.7462578	-0.5071241	0.33975923	-0.61459804	-0.26687744	0.32040626
0.5390105	-0.42722616	0.742083	-0.6772874	0.18174717	-0.8020764	-0.5660312	-0.33523932	0.533759	-0.05568719	0.044782367	-0.43013144	0.14371257	-0.60457796	-0.72156745	0.7758527
0.33232498	0.7083375	0.05288313	-0.44020364	0.40966645	0.112643145	-0.734461	-0.16643903	-0.019035012	-0.4223992	-0.25731274	-0.022455638	0.013808533	0.06163142	-0.11595629	0.22750695
-0.356027	-0.8048645	-0.008940775	0.16241145	-0.31928363	-0.07132265	0.31402373	-0.008303722	0.0944535	0.19681369	0.14995277	0.28362817	-0.09586757	0.12619759	0.036620677	-0.26754898
-0.7936737	-0.2319628	0.38857293	-0.25676984	-0.38077068	-0.5447362	-0.5123073	-0.83577096	0.46945488	-0.348687	-0.6240152	1.138366	-1.1306682	1.1002406	0.034772195	-0.72265345
0.375686	-0.32317033	0.54783046	-0.5146083	0.10461625	-0.5438725	-0.39261785	-0.21963015	0.36960763	-0.047440987	0.028559683	-0.36782688	0.1405867	-0.45513928	-0.64484274	0.60562956
0.11368784	0.21561877	0.1927423	-0.26191226	-0.0296445	-0.063941166	-0.08114121	-0.027268311	0.12835306	0.123311944	-0.08777636	-0.27153862	0.37736017	-0.20660602	-0.39642906	0.31589863
0.66449153	-0.10149042	0.24483916	-0.4363399	0.48184937	-0.47989053	-0.3342485	0.21147934	-0.088287175	-0.26899317	0.6770859	-0.66240215	0.4372569	-0.76973736	-0.4203865	0.65864253
0.09147761	0.34479612	-0.2154806	0.06112464	-0.042680137	0.3731371	0.115116164	0.35062417	-0.2482293	0.25678667	0.36077237	-0.5188037	0.5732389	-0.297346	-0.061703507	0.049847353
-0.46851948	-1.1682469	-1.4085226	1.0772803	0.77412975	0.37071127	0.7341527	0.10744839	-1.2543638	-1.4166992	0.976559	1.4594092	-1.4745222	1.2210869	1.1827136	-1.328596
0.8279641	-0.7025893	0.68751174	-0.6264992	0.6977479	-1.0020655	-0.7954402	-0.48174486	0.3299455	-0.83649796	0.51742023	-0.41496852	-0.15123639	-0.79959047	-0.62119246	0.808172
-0.1676284	-0.46081144	-0.3238171	0.29533353	-0.02444881	0.036961798	0.25458884	0.19954422	-0.28802344	-0.05511412	0.48073947	0.17384818	-0.11306682	0.038893357	0.25644603	-0.3087637
0.2674752	0.7496942	0.1364587	-0.45728555	0.22873849	0.15919714	-0.6839669	-0.25819522	0.05121437	-0.33256876	-0.35125497	-0.011766671	-0.040779416	0.13108572	-0.12355146	0.22122261
0.558608	-0.5395122	0.63996357	-0.549696	0.29238072	-0.73781604	-0.4919127	-0.2355948	0.34413663	-0.23696269	0.21013318	-0.42752612	0.15383987	-0.6518712	-0.595824	0.70659214
0.34854552	0.01934306	-0.10638359	-0.13798168	0.3285223	-0.14066088	-0.16381048	0.28306544	-0.24114633	-0.25445753	0.41111428	-0.3810159	0.25138336	-0.5218322	-0.19304802	0.35946757
0.556957	-0.9511077	1.2422597	-1.0490965	0.3558995	-1.105016	-1.2028214	-0.8263641	0.97513336	-0.6172203	-0.39139706	0.012874522	-0.46687907	-0.36321017	-1.0933894	0.83476585
0.35613707	0.023361387	0.17027785	-0.41094047	0.19419342	-0.34786558	-0.36175337	-0.07334035	0.04661582	-0.226528	0.102771156	-0.29699525	0.15470462	-0.36394903	-0.25597465	0.40662855
-0.73836356	-0.37508658	0.12834534	0.050726973	-0.66232187	0.48953435	0.44256297	0.075204566	0.33721045	0.64135915	0.019290145	0.06015243	0.37739268	0.4078932	-0.35179833	-0.62360334
0.33574963	-0.824981	0.82294863	-0.57078534	0.016394159	-0.60308534	-0.2666831	-0.114800304	0.81481177	0.09031931	0.37588444	-0.76131195	0.57064575	-0.8435124	-0.8236268	0.65041286
-0.73606503	-0.2791018	-0.53826433	0.33049023	-0.80528396	0.9321949	0.82200474	0.72302836	-0.10941257	0.8955375	0.8127379	-0.90450037	1.0234799	-0.36769384	-0.32510218	-0.64566916
0.3480175	-0.19492677	0.13152222	-0.29397473	0.33817595	-0.41342893	-0.32363704	-0.021556733	-0.074154936	-0.30391073	0.3787151	-0.20866646	-0.0009395236	-0.45049477	-0.17627	0.38776955
0.47334683	-0.5768018	0.37706098	-0.42812622	0.400537	-0.7458313	-0.52971405	-0.31576154	0.14005157	-0.5190548	0.2239261	-0.050360836	-0.35538134	-0.364137	-0.35585868	0.51883805
0.23174568	-0.6966149	1.1293492	-0.7911691	-0.0023508314	-0.8278617	-0.6634674	-0.63810676	0.93195003	0.10000452	-0.37284064	-0.020420792	-0.044041794	-0.24934545	-1.0483652	0.6135289
-0.59424716	-0.9127077	-1.168487	0.8627454	0.2697666	0.25432074	0.4549028	-0.3157566	-0.96332115	-0.91518784	0.5151269	1.2139275	-1.3307906	1.0299109	1.147691	-1.0839638
-0.95172	0.7926943	1.0190185	-0.7548149	-0.76030946	-0.28208402	-0.8426	-1.0073501	0.9489841	0.23051004	-1.0358298	0.99273574	-1.023171	1.115909	-0.8217282	-0.6950281
-0.041749384	0.5142016	-0.23232916	0.0015793063	0.06386304	0.36343926	-0.18252471	-0.17284547	-0.19437037	-0.22298124	-0.15214482	0.25392118	-0.24504195	0.4418665	0.26300016	-0.31175274
-0.42289507	-0.48495087	-0.66987616	0.40501675	-0.25200838	0.47144103	0.586995	0.5580784	-0.5149196	0.30200192	0.8619836	-0.20545775	0.31571907	-0.13272014	0.1794415	-0.431538
-0.602144	0.043219604	0.4073126	-0.2925816	-0.4013328	-0.13781571	-0.16026714	-0.469038	0.42516562	0.1456117	-0.46488735	0.65917027	-0.5121418	0.6530954	-0.33684254	-0.42279047
0.05398843	-0.2303413	0.09504783	-0.14121076	0.030318959	-0.19169232	-0.073021136	0.01414663	0.06627136	0.01956111	0.11886403	-0.032301184	0.03640474	-0.20087859	-0.156379	0.2042998
-0.49668756	-0.55983794	-0.3714686	0.27412906	0.03254448	-0.16195354	-0.04407803	-0.5032398	-0.2676519	-0.5049656	0.02865252	1.0655435	-1.01969	0.94651675	0.46673203	-0.74995476
0.0785355	0.2653705	0.30344823	-0.41646495	0.15059842	-0.2613181	-0.6089304	-0.47603643	0.27208745	-0.3556731	-0.34045568	0.32240674	-0.40281865	0.21822456	-0.27287441	0.19241914
-0.17405203	-0.22832134	-0.76458365	0.4423603	-0.06417689	0.48032665	0.49388358	0.5429898	-0.596627	0.06986138	0.8164438	-0.112313986	0.09514693	-0.06471348	0.41628775	-0.41534376
-0.5812149	-0.49606222	-0.33034763	0.46122518	-0.21380809	0.14704415	0.2521851	-0.44206247	-0.24707805	-0.30921704	-0.048619077	0.82205164	-0.8734218	0.8766335	0.49937478	-0.74931866
0.040024117	0.46934223	0.20611781	-0.309611	-0.100546464	0.12129339	-0.120807625	-0.035425004	0.12913093	0.09157809	-0.16880235	-0.2261525	0.23663144	-0.013336322	-0.29508808	0.20333076
-0.04243115	-0.42108288	0.3123238	-0.29577866	-0.058423616	-0.35847324	-0.1494677	-0.25570294	0.33536655	-0.08070028	-0.16715433	0.18706149	-0.21020946	-0.018840868	-0.25262678	0.13545746
-0.6795304	-0.4370311	0.267805	-0.031089788	-0.5009956	-0.086075366	0.04586788	-0.48174578	0.3943528	0.10905933	-0.37980136	0.6872925	-0.53089607	0.57760435	-0.046284027	-0.5465298
-0.43053016	-0.40971875	-0.51577616	0.52966404	-0.22768971	0.61436254	0.4880872	0.32872373	-0.19185163	0.20950258	0.41655648	0.1375501	0.095457286	0.31787816	0.32231343	-0.7868827
0.14686728	-0.24086006	-0.3804665	0.28933245	0.40582463	-0.11296799	-0.07008122	0.041476347	-0.3973163	-0.66985935	0.29323307	0.3323087	-0.6452248	0.09885833	0.4594602	-0.20177595
0.6992786	-0.97718614	0.9891968	-0.79687124	0.5075001	-1.0579652	-0.7134539	-0.589103	0.8444615	-0.47693723	0.52225745	-0.7261073	0.23158683	-0.88404304	-0.80769354	0.8557667
0.07724193	0.009345551	0.47886172	-0.46625027	-0.10244735	-0.33673242	-0.19412892	-0.24946062	0.3844545	0.0710042	-0.25419247	0.002775222	0.073212646	-0.08948944	-0.49896574	0.28845328
0.08747551	0.110007115	0.43978727	-0.41682526	-0.050045293	-0.2463294	-0.2584179	-0.19207846	0.37948567	0.037314672	-0.23660706	-0.089344494	0.1723156	-0.12686306	-0.4561649	0.28394353
0.20718206	0.17341438	-0.080398485	-0.10323151	0.18896446	-0.026105294	-0.11720655	0.0763148	-0.16331087	-0.22356628	0.09573621	-0.08945877	-0.0051015755	-0.086203255	0.029816093	0.11748398
-0.61077064	-0.063482486	0.66105103	-0.25927153	-0.7544628	0.09284911	0.18547827	-0.28294936	0.7042529	0.7446096	-0.3896841	0.11709091	0.19339775	0.35667375	-0.6995633	-0.19269754
-0.26429668	-0.36395505	-0.49601534	0.38753882	-0.009104308	0.28634638	0.31756333	0.13746987	-0.4039964	-0.046178885	0.40116912	0.30470327	-0.25811237	0.19286408	0.4124165	-0.5223711
0.10625147	0.1321284	-0.066801295	-0.111535974	0.064743556	0.12926124	-0.0172355	0.084919736	-0.0607879	-0.009638074	0.06980052	-0.1203107	0.1519738	-0.19440606	-0.11663527	0.06957131
0.03908292	-0.13329752	-0.14008038	0.020239776	0.18313436	-0.08971574	-0.08036748	0.01625818	-0.18909134	-0.24099018	0.1615598	0.1251638	-0.27015048	0.074811384	0.11494111	-0.03307613
-0.12307404	-0.4092097	-0.15536729	0.1714112	-0.029045431	-0.035906244	0.16985802	-0.05273154	-0.20853455	-0.11661221	0.2111391	0.32320446	-0.2623554	0.08026552	0.15885925	-0.1894297
0.77278394	0.0010162782	0.14977121	-0.534269	0.6526739	-0.5392075	-0.70114666	0.043134898	-0.10628491	-0.63721085	0.39968643	-0.50559264	0.13195902	-0.7772183	-0.32723394	0.70317507
-0.07707674	0.083597876	0.114450246	-0.08629444	0.0670031	-0.0756895	-0.14418602	-0.1622488	0.08577945	-0.12583508	-0.23576725	0.21926779	-0.20087714	0.22846939	-0.06980905	-0.014799693
-0.12652771	0.20848297	0.065519854	-0.11668631	-0.08121871	0.20652778	-0.14139187	-0.11994328	0.14536138	-0.0061788745	-0.22601183	0.27940413	-0.17527649	0.3105951	-0.025823047	-0.25216398
0.4455592	0.043690912	-0.047406442	-0.1487909	0.42919335	-0.22618593	-0.3536239	0.0828888	-0.17150642	-0.40707937	0.28323153	-0.21111105	-0.018861601	-0.4090597	-0.0055450397	0.30444303
-0.027517825	-0.41723806	0.3596992	-0.2094719	-0.19336264	-0.33151215	-0.0031742444	-0.12844786	0.30792296	0.2922354	-0.013628341	-0.10269752	0.10804107	-0.14818144	-0.4369353	0.27684197
-0.79173684	-0.057515584	0.55728024	-0.28329045	-0.6986539	0.1389113	0.036911815	-0.436467	0.6675804	0.4447485	-0.536893	0.46472126	-0.1589795	0.727862	-0.5582972	-0.5639964
0.08140289	0.7529691	-0.33425418	0.02383839	-0.011035645	0.7273382	0.048869673	0.2963998	-0.21952926	0.19963518	0.12528834	-0.50185525	0.612355	-0.06394486	0.054490242	-0.12465068
-0.5318848	-0.39766368	-0.16779026	0.2301994	-0.31595746	0.28847897	0.31917182	-0.04083922	0.012377145	0.121445104	-0.015823694	0.43819663	-0.29053012	0.5575847	0.27268022	-0.65248543
-0.79677474	-1.1905268	-1.2697353	1.051823	0.4453335	0.4747408	0.80400497	-0.028502718	-1.1439847	-1.224045	0.7845914	1.3643394	-1.4186964	1.2517501	1.1252425	-1.2678168
-0.5097103	-0.9985668	-0.5736393	0.55499965	-0.31979287	0.20638312	0.6204529	0.26266295	-0.34876236	0.03147939	0.4830828	0.4246024	-0.34545794	0.2683392	0.43157342	-0.61620337
-0.24328102	0.1252252	0.1943926	-0.1252065	-0.22833389	0.17986828	0.055669483	-0.10564089	0.17973906	0.18901269	-0.1849578	0.068654135	0.1352505	0.23779044	-0.31157544	-0.14737637
-0.016870689	-0.03372628	-0.19737166	0.007610553	-0.030549858	0.10919111	0.09076656	0.14581881	-0.18531638	0.079828344	0.28983432	-0.08402699	0.15823281	-0.22510168	0.07821163	-0.023152042
0.19576071	-0.048382245	-0.11157236	-0.12885177	0.15820119	-0.1009376	-0.11377801	0.06080478	-0.1351355	-0.11936351	0.18259978	-0.065557495	0.025020374	-0.20775248	0.043804944	0.13610296
-0.27739125	0.11355161	-0.556404	0.5000368	-0.12892544	0.6576544	0.4015893	0.34237266	-0.40226245	0.047951147	0.3421802	0.052031137	0.110223666	0.26589334	0.45105496	-0.59273386
-0.04699252	-0.49848711	0.20556855	-0.057166338	-0.0333633	-0.35219318	0.045970432	-0.01399991	0.08463655	0.07451931	0.22096477	-0.11135518	-0.051414166	-0.23284039	-0.21691659	0.13919011
-0.145166	-0.32633424	-0.63546246	0.31136537	0.080492556	0.1659578	0.13995717	0.060756966	-0.5359469	-0.30838308	0.47931492	0.5528355	-0.54172343	0.35597232	0.55061907	-0.58608747
-0.4344608	0.3272973	0.3189068	-0.20306268	-0.2224853	0.12418339	-0.2673918	-0.45179188	0.40702215	0.0060772835	-0.52358073	0.62813795	-0.44881442	0.72052544	-0.15488242	-0.5176967
0.4406193	-0.6474096	0.8661383	-0.65795326	0.18901566	-0.57687974	-0.29779047	0.010897448	0.6778517	-0.0350152	0.5205507	-0.8702596	0.6435079	-0.9498762	-0.84347916	0.80974364
-0.665906	-0.91723686	-0.7425603	0.6283958	-0.022751763	0.28919548	0.5358967	-0.06888619	-0.52208304	-0.46095487	0.38189325	0.89128953	-0.8536775	0.74023116	0.67343646	-1.013196
0.16659643	0.22747941	-1.1428885	0.5743963	0.39506066	0.8089138	-0.028220696	0.35601094	-0.83761775	-1.027118	0.661957	0.06680723	-0.25133178	0.21110435	1.0514114	-0.43375623
-0.1930159	0.39777395	-0.012267564	-0.10156548	-0.08477941	0.5057426	-0.10069253	-0.050663527	-0.0023232608	0.0055322275	-0.1386481	0.16557902	-0.030711176	0.3411313	0.037263688	-0.3118584
0.1771215	0.15584286	-0.059328344	-0.10151778	0.22224261	0.015327128	-0.2685714	-0.09154854	-0.134543	-0.33487624	-0.009067158	0.06003598	-0.19412345	0.048794843	0.119088024	0.070846505
-0.2615174	0.68567336	0.60786706	-0.5880243	-0.15399358	-0.02687487	-0.620138	-0.65013033	0.5438585	-0.23533697	-0.7642932	0.61105275	-0.54889506	0.8158134	-0.375605	-0.21029703
0.88958555	0.98199826	-1.1152439	0.22751123	1.0736719	0.7557656	-0.69556427	0.894279	-1.090885	-1.2432661	0.9716744	-0.6808413	0.51806915	-0.6107871	0.8996105	0.27488145
0.09260017	-0.37991694	-0.021004453	-0.0095604025	-0.18674113	-0.018407011	0.2418194	0.34804678	-0.13778694	0.3460833	0.5429383	-0.61454123	0.4950164	-0.6745596	-0.33050975	0.17449562
0.43798298	0.22847515	0.13185395	-0.35133687	0.31059277	-0.20472553	-0.45356745	0.009938424	-0.021747984	-0.35855478	0.09109505	-0.32144907	0.123817526	-0.3436003	-0.26828948	0.46098247
0.24891715	-1.1154468	0.5066021	-0.28846171	0.17693347	-0.76686054	-0.23604026	-0.5594689	0.36964068	-0.38633204	0.44369334	0.06377524	-0.4080265	-0.41096988	-0.36048234	0.33405474
-0.16435866	0.29360723	0.19965765	-0.14010014	-0.119285695	0.122615576	-0.17482994	-0.37054333	0.19089635	-0.08395796	-0.40525115	0.27430555	-0.26006737	0.39121053	-0.05946893	-0.15234189
-0.5303405	-0.25517723	0.20943916	-0.15883473	-0.62624776	0.35285544	0.32127053	0.06843855	0.39309442	0.5932014	0.04890835	-0.2923709	0.47248486	0.028351756	-0.7134248	-0.21129112
-0.5673224	-0.7047398	-0.4022736	0.38200083	0.17690824	-0.014206624	0.095649675	-0.29229176	-0.25107628	-0.7483721	-0.01337271	1.0252328	-1.0982733	0.84544545	0.5481054	-0.89853334
-0.7107777	-0.17221864	-0.28538308	0.32061413	-0.501074	0.643051	0.5698109	0.34263065	-0.02570943	0.4813889	0.28645042	-0.09636634	0.42023754	0.18253556	0.08587402	-0.74863744
-0.17846851	-0.558033	0.43500942	-0.2584534	-0.2021909	-0.34270543	-0.017189926	-0.19475175	0.40083465	0.20996194	-0.04072447	0.06904975	-0.055392038	-0.0005118246	-0.33911094	0.08545678
0.2389914	0.55460006	-0.3692372	-0.07923733	0.14626291	0.47719598	-0.073110394	0.3871864	-0.3570751	-0.009902305	0.3514616	-0.4859012	0.59550613	-0.36691314	0.14429061	0.09661616
0.61320007	-0.061656483	0.14412127	-0.387983	0.48385045	-0.44535992	-0.4381021	0.11979638	-0.056677837	-0.32711548	0.59076697	-0.59089047	0.31868497	-0.7517986	-0.34519157	0.59524167
0.2658534	-0.8599963	0.5616783	-0.4415295	0.004703756	-0.5515183	-0.21293043	-0.1627878	0.46279088	0.024381401	0.09204005	-0.23773247	0.100359805	-0.37186426	-0.6516642	0.4074657
-0.1306853	0.34033003	0.15852852	-0.19430608	0.02688941	0.035008863	-0.27853927	-0.29064825	0.21276629	-0.18894534	-0.3062399	0.26478627	-0.2666246	0.42281443	-0.14519472	-0.1123318
0.38132805	0.46450293	-0.2871308	-0.14107849	0.33967218	0.1713771	-0.19063257	0.38531002	-0.3395587	-0.13616022	0.39949486	-0.5489494	0.5013151	-0.52593464	-0.007729329	0.28565827
-0.6788638	-0.59396124	-0.18586852	0.30481696	-0.599815	0.64590913	0.6424932	0.3172739	0.13467808	0.63427866	0.25252002	-0.12302508	0.42243674	0.0045363517	-0.22077894	-0.7927485
-0.09644893	-0.26176313	-0.09259276	0.024240531	0.0048562894	0.017955001	0.0724963	0.11077826	-0.10477235	0.034554232	0.1960916	0.05484591	-0.09751058	-0.06647336	0.045509767	-0.098982066
-0.44176114	0.5819102	0.54022926	-0.44271538	-0.5727541	0.10510982	-0.23917174	-0.41620848	0.54006696	0.43585318	-0.49310318	0.27841833	-0.082137555	0.49540314	-0.65831745	-0.25391698
0.5608453	-0.46704048	0.18135746	-0.34677714	0.6776933	-0.60755897	-0.51926655	-0.097696096	-0.14796074	-0.7838399	0.73913014	-0.19317962	-0.20253696	-0.5970335	-0.25694913	0.452558
0.9703869	-1.3943683	1.2298186	-0.87403446	0.68546873	-1.0844063	-0.93240833	-0.8203075	1.1440927	-0.42773488	0.6880442	-1.0571853	0.7312873	-1.1508968	-1.0003707	1.1172138
-0.7945567	-0.29630974	0.09443279	0.051235028	-0.72842497	0.5089359	0.43333966	0.16997999	0.34035784	0.5613534	0.1331934	-0.19553421	0.43166748	0.13173606	-0.714252	-0.54085475
-0.30153865	-0.84198064	-0.8114835	0.55989057	0.2673807	0.26245415	0.4635853	0.16220528	-0.7099417	-0.4696091	0.7090931	0.7118174	-0.6756364	0.41320154	0.5937371	-0.7854948
-0.12713999	0.07289353	0.14396374	-0.13756473	-0.06725854	-0.048148584	-0.0735236	-0.1459741	0.21899652	0.108655535	-0.1892453	0.071775146	-0.052495956	0.14150928	-0.1464923	0.012781284
0.22706236	0.39413917	0.28154215	-0.47340587	0.095660925	-0.065114945	-0.25235918	-0.0497169	0.17884898	0.08231239	-0.12903489	-0.281057	0.32463014	-0.29639262	-0.53189	0.41598988
-0.7660421	-0.09861885	0.15869759	0.09126516	-0.6932583	0.54355025	0.39858702	0.010232921	0.28376102	0.61871654	-0.15702538	0.017315608	0.34599403	0.2724351	-0.39344484	-0.6148861
-0.1687966	0.28667873	-0.36496168	0.24011533	-0.03663386	0.600096	0.23780897	0.27354383	-0.30192143	0.059757575	0.16967444	-0.029046627	0.12956367	0.18877956	0.34860197	-0.47062525
-0.19447716	-0.3731542	0.17056195	-0.084419034	-0.13918117	-0.14819944	-0.02102644	-0.15234886	0.17555575	0.08651913	-0.035248123	0.26408812	-0.19185145	0.14279841	-0.16794743	-0.072772026
0.3067266	0.41275048	0.10745476	-0.3532281	0.25483328	-0.04557499	-0.5184604	-0.13564512	-0.05089487	-0.18955559	-0.08420063	-0.12245157	-0.0047029853	-0.07695972	-0.10557652	0.2584911
-0.8659402	0.29189432	0.7362889	-0.51958233	-0.78858167	-0.13786536	-0.424697	-0.5803521	0.7114305	0.47424474	-0.7114013	0.6622634	-0.5138072	0.6750443	-0.5937978	-0.51883864
-0.1550427	0.4991155	-0.36735004	0.18751724	-0.012531018	0.7449117	0.069624916	0.23002264	-0.18524005	0.08477042	0.13803697	-0.24253651	0.35143122	0.051168952	0.13955043	-0.3724547
-0.5104144	-0.1529825	-0.2423505	0.27924135	-0.45882556	0.58872324	0.42577243	0.24739984	0.028866073	0.40333596	0.15224512	-0.02164181	0.25611162	0.25610715	0.023202632	-0.5886857
0.31922448	0.03131787	0.11797564	-0.3120299	0.23658216	-0.3255302	-0.3715688	-0.04762942	-0.053966332	-0.22863074	0.09917229	-0.1630165	0.03688177	-0.34773564	-0.18020105	0.41519037
-0.6270257	-0.27820837	-0.50560397	0.4060519	-0.72915804	0.9287874	0.80438334	0.80144155	-0.07359064	0.81774765	0.84102964	-0.9134327	0.9583653	-0.4099912	-0.2508326	-0.57945573
-0.64081305	0.54219365	0.82431453	-0.6665214	-0.6602498	-0.46347514	-0.8324326	-0.7587371	0.7965877	0.28125736	-0.8494902	0.8203248	-0.8007409	0.8206152	-0.6719035	-0.37343875
0.36645752	-0.05818629	0.042484824	-0.19780609	0.1689045	-0.20431657	-0.11450832	0.14643192	-0.09462344	-0.11448212	0.39034855	-0.47938284	0.27461213	-0.5289095	-0.23221628	0.36079025
-0.91890854	-0.698471	-0.06915929	0.30905527	-0.9001772	0.74200773	0.7780253	0.3665363	0.30925745	0.8485874	0.32522944	-0.3306788	0.6874605	0.06908845	-0.37159312	-0.7733822
-0.08057188	0.019706821	0.19671799	-0.13627455	-0.08544044	-0.11941696	-0.121473536	-0.17339231	0.10507713	-0.069697686	-0.15753661	0.20282248	-0.23048207	0.16064765	-0.11296168	0.0006776422
0.06663734	0.13412985	0.13438657	-0.20357472	0.046033684	-0.13756652	-0.2676962	-0.17145817	0.0845122	-0.20123135	-0.14890103	0.1251963	-0.16815719	0.009889579	-0.09769229	0.06093464
-1.0342606	0.5757075	1.130991	-0.7467495	-0.9996841	-0.24349251	-0.7234387	-0.922348	1.0569655	0.56949836	-1.0541503	0.98306364	-0.8212988	1.1067997	-0.9192282	-0.6871256
0.2367864	-0.23332086	0.26758018	-0.28125176	0.22805753	-0.4402734	-0.25367007	-0.24651761	0.10723198	-0.30292824	-0.050066683	0.1306096	-0.29398265	-0.07077025	-0.23454057	0.26185116
-0.1488567	0.003181926	-0.5980255	0.48132497	-0.020758403	0.60441494	0.27717048	0.30560955	-0.34492806	0.0060369214	0.37271345	0.037864186	0.03502344	0.1870166	0.5160539	-0.5816083
-0.21564505	0.13454679	-0.017664462	0.123935826	-0.20927626	0.33855665	0.15165779	0.035663817	0.047944546	0.28656623	-0.08039463	-0.025570262	0.18629198	0.16248403	0.0012929599	-0.27757064
-0.010961945	0.5781736	0.23029605	-0.3864453	-0.03784502	0.26160195	-0.35920584	-0.24539211	0.22845486	0.055832792	-0.38248575	0.07284521	-0.049661297	0.32217187	-0.21639049	-0.09281258
-0.61014545	-0.098786786	0.37291366	-0.2939334	-0.22423576	-0.21837796	-0.5113119	-0.5625139	0.32001156	-0.3503354	-0.52064514	0.9347815	-1.0746996	0.8950481	-0.08262452	-0.7121053
0.25032544	0.3459183	-0.0046658837	-0.1683122	0.21735424	0.023883933	-0.29227772	-0.064766005	-0.043871436	-0.15541784	-0.05881072	-0.12254596	0.027878556	-0.059141688	-0.024282569	0.17868574
-0.5647529	-1.0407709	-1.0703181	0.79801065	0.49743363	0.23325872	0.6796848	0.054448172	-0.9339967	-1.0991586	0.7318844	1.1546651	-1.1639143	0.99793404	0.9063032	-0.996068
0.0024601188	0.28297633	-0.32377777	0.023266401	-0.060266078	0.39990947	0.13713333	0.47283652	-0.27995956	0.21572308	0.5589883	-0.7579861	0.7283513	-0.597453	-0.15934524	0.06649442
-0.15526316	-0.14799905	0.18059334	-0.07168712	-0.2607991	-0.006566629	0.039448753	-0.053728186	0.14213558	0.23929434	-0.067360625	-0.04146791	0.093679376	0.053603996	-0.22102357	-0.0041280137
-0.40201738	-0.45239314	0.22019784	0.06362922	-0.4765587	0.17621872	0.43263537	0.30481943	0.28769967	0.563656	0.27757624	-0.48811865	0.5885367	-0.35345158	-0.5053115	-0.07794068
0.69499695	0.79807335	-0.78228956	0.021864215	0.7697435	0.64550453	-0.6071275	0.6092204	-0.7989019	-0.8311578	0.7618593	-0.59744215	0.5069537	-0.51733273	0.63320714	0.23754479
-0.13683191	0.14345558	0.18186034	-0.23174274	-0.006148393	-0.068735294	-0.20234677	-0.3188791	0.2131966	-0.098869696	-0.34209228	0.26066598	-0.26222616	0.30256015	-0.10358181	-0.11653063
-0.18829346	-0.11514296	-0.12238911	0.06861821	0.056634992	-0.0275241	-0.05465932	-0.19695173	-0.08935731	-0.35432628	-0.02885741	0.33377266	-0.44091207	0.32685632	0.21877223	-0.24597491
-0.34319216	-0.12324799	-0.21005954	0.23090209	-0.18782675	0.3271064	0.22029766	0.010741548	-0.10043291	0.13783146	0.039280575	0.20328523	-0.092478946	0.22641346	0.16848038	-0.4630566
-0.7201574	0.0077223624	0.3538946	-0.09448225	-0.7322539	0.39570853	0.24584763	-0.12268674	0.39081156	0.63143283	-0.25374123	0.123889044	0.21720515	0.24392511	-0.4625118	-0.45300484
-0.070458174	0.10818871	0.39701703	-0.3976093	0.10205173	-0.34184983	-0.48145324	-0.54840165	0.3945385	-0.25641948	-0.53814644	0.49654147	-0.56148696	0.401544	-0.26361042	0.0828771
-0.39513966	0.29674792	-0.22808918	0.2172054	-0.4815579	0.762752	0.3818822	0.34502798	0.012646514	0.61344504	0.17095247	-0.46827376	0.62466925	0.08122735	-0.0070746774	-0.40357256
0.11606193	-0.23895484	0.024456665	-0.04107705	-0.023962256	-0.1999533	-0.0061962	0.0995295	-0.019974526	0.07228725	0.2873218	-0.11450969	0.043603513	-0.2851892	-0.11485407	0.14558625
-0.41615924	-0.16133846	-0.14292476	0.2210408	-0.14037672	0.24377647	0.11715334	-0.10147115	-0.09377138	0.06120966	-0.002135386	0.43885404	-0.36537543	0.46107316	0.28477758	-0.5418293
0.09036153	0.05588135	-0.17104839	0.0038880925	-0.1551972	0.16509224	0.23696744	0.47910365	-0.17821229	0.32767054	0.43639624	-0.68456787	0.69934505	-0.56383497	-0.1595079	0.18102711
-0.18545042	-0.7712832	0.22793798	-0.1572864	-0.10428206	-0.5468794	-0.20564447	-0.49697948	0.23751098	-0.29873264	-0.103166796	0.5360148	-0.7441998	0.2513471	-0.07441049	0.04074197
-0.039311454	0.22674444	0.37550282	-0.4086803	0.07803613	-0.21325774	-0.62172043	-0.4873298	0.31545377	-0.26331258	-0.44080192	0.3855027	-0.46184996	0.37053853	-0.24895133	-0.03837681
-0.74593484	-0.8575602	-0.23174354	0.31789038	-0.61575866	0.33485886	0.5534164	0.0054653534	-0.036224432	0.3044123	0.13568474	0.47583717	-0.16632059	0.44463155	0.15387987	-0.6637391
0.3494873	-0.2119484	0.4843117	-0.54025185	-0.04782034	-0.449873	-0.2144219	-0.04838866	0.4070601	0.1811639	0.04459274	-0.487533	0.4531118	-0.58528227	-0.6966412	0.5743257
-0.36947528	-0.47120258	-0.06364356	0.19903871	-0.33776847	0.20696211	0.38928714	0.30316254	0.03759122	0.36493632	0.47693214	-0.17113169	0.22568043	-0.08870644	-0.13730541	-0.23197468
-0.13621499	-1.0696284	0.32845047	0.038445	-0.52292705	-0.14774099	0.46065888	0.59086186	0.40342754	0.71318066	0.86268795	-1.1240184	0.86949134	-0.9777913	-0.75491875	0.30191782
-0.24044244	-0.099761195	0.2505244	-0.22572668	-0.255135	-0.17464916	-0.0920511	-0.28492203	0.23013324	0.1762734	-0.2196207	0.22702585	-0.14567773	0.18502907	-0.24613751	-0.0038233039
-0.33871967	-0.33428594	-0.18696484	0.21218403	-0.18981276	0.15226953	0.2598787	0.04471232	-0.072569996	0.14232716	0.09642896	0.20574078	-0.091613434	0.15566516	0.15414873	-0.36593595
0.08576397	0.030487187	-0.0007546601	-0.1094756	0.020196846	-0.0019359104	-0.05006303	0.16234949	-0.10002721	0.034588546	0.20001662	-0.3803074	0.33999595	-0.36831272	-0.18246453	0.23720264
-0.5051148	0.42462447	0.6119814	-0.49746776	-0.6596365	0.02818053	-0.11371466	-0.35320115	0.62653035	0.6132931	-0.5016979	0.10106617	0.19315164	0.34040508	-0.793383	0.076447785
-0.35034513	0.026968705	-0.2822343	0.22698821	-0.3868443	0.64617807	0.40550917	0.34534806	-0.11162785	0.45927003	0.28715622	-0.27295867	0.4834442	0.045508686	-0.0777408	-0.40973982
-0.30161417	-0.5316959	-0.37753278	0.27510238	-0.36549053	0.41046327	0.5668595	0.44423446	-0.23695217	0.3596845	0.63756937	-0.24262631	0.42917016	-0.24284284	0.071527645	-0.31195349
-0.94486845	-0.8146329	-0.29387593	0.4893657	-1.0934739	0.9669899	0.9892906	0.77710336	0.26652	1.0832348	0.7391857	-0.9116261	1.0506256	-0.41945156	-0.47990674	-0.74523276
-0.5028774	0.26153037	0.40935034	-0.20486067	-0.44005644	0.22235768	-0.04757882	-0.33860368	0.45468834	0.30904013	-0.43944275	0.25723296	-0.05606474	0.47716385	-0.37931013	-0.3355094
0.9894745	-0.5087955	0.8562983	-0.9110347	0.6997135	-0.96297616	-1.0240647	-0.3337197	0.5274499	-0.47269803	0.37621182	-0.8605287	0.52059865	-0.987173	-0.9137976	0.99783957
-0.41222733	-0.19954368	0.07907862	-0.015504286	-0.47489497	0.22951885	0.32885417	0.07756296	0.29266432	0.51009846	0.10808555	-0.26836914	0.46267688	-0.04669536	-0.30847275	-0.16626316
0.024019407	-0.17204246	-0.22608614	0.029807243	0.13554576	0.0001028565	0.025254177	0.07015409	-0.1763715	-0.20018259	0.23279189	0.083352156	-0.13396372	-0.07064277	0.07382262	-0.08811002
-0.6334502	-0.49219817	-0.5688361	0.61909944	-0.2775042	0.58677125	0.45180574	-0.093990095	-0.28858545	-0.16818434	0.005367828	0.7387248	-0.7071111	0.75874394	0.70627356	-0.9166928
-0.7866306	-0.5708978	-0.46924037	0.2899979	-0.7203957	0.78139794	0.7717676	0.6396961	-0.026974272	0.8323175	0.7912778	-0.8967958	0.8765476	-0.59809387	-0.47272676	-0.62618583
-0.19665544	0.40609962	0.33982882	-0.46314445	-0.10695964	-0.084098205	-0.2704472	-0.3747261	0.3672747	0.0034000298	-0.41864008	0.21693031	-0.12984426	0.25195843	-0.4821647	0.07001101
-0.2409806	-0.3287594	-0.2524314	0.21825106	-0.08428964	0.15200894	0.2088078	-0.0131718265	-0.13281265	-0.06948192	0.116889544	0.39289993	-0.33478513	0.3228946	0.3097323	-0.44318944
0.6911559	-0.9540515	0.9428247	-0.68558323	0.36015996	-0.88790745	-0.577738	-0.35543406	0.6430463	-0.24124593	0.3857498	-0.6348724	0.34509957	-0.8381914	-0.8904898	0.90819484
-0.45091423	0.45690525	0.7362926	-0.6449201	-0.5065739	-0.2548989	-0.5473214	-0.60975695	0.701453	0.22306235	-0.72849405	0.5510399	-0.48169857	0.61020553	-0.62392765	-0.14502193
-0.10999216	-0.19296217	0.3217823	-0.30977884	-0.32736272	-0.10030487	0.024786277	-0.091695644	0.32296658	0.3157153	-0.031360857	-0.19292304	0.36373222	-0.13426106	-0.50621116	0.13740452
0.27487832	-0.21848306	0.5063834	-0.47405663	0.15104246	-0.5425604	-0.3323236	-0.23806149	0.32230413	-0.07794205	-0.048441943	-0.21031766	0.05568104	-0.36977586	-0.5366409	0.4560269
0.2848684	-0.08001872	0.40165612	-0.4123091	0.23507984	-0.38480762	-0.38489082	-0.22206818	0.31164312	-0.1903034	-0.08779873	-0.07292196	-0.06925044	-0.1535654	-0.43649113	0.4091437
-0.18759446	0.020553079	-0.17423923	0.050214227	0.11039523	0.0996165	-0.08746406	-0.19757007	-0.08440674	-0.33996415	-0.14950179	0.43749174	-0.50072265	0.35512227	0.27009732	-0.31030527
-0.060958073	0.24045722	0.118204564	-0.16730914	-0.019082995	-0.009936361	-0.27490628	-0.26827422	0.09174032	-0.1419677	-0.30921894	0.3583162	-0.35261494	0.4214826	0.08150093	-0.1274588
-0.051838506	0.0338826	0.29298142	-0.2914374	-0.19929251	-0.1411014	-0.12238514	-0.109298855	0.31147686	0.20829247	-0.19110426	-0.055225626	0.20852835	0.005739696	-0.40248126	0.14044142
-0.44171536	-0.12634228	-0.23886703	0.24821214	-0.24127515	0.49756482	0.38918847	0.16147466	-0.07112946	0.20154658	0.07622506	0.0996148	0.07358631	0.26352683	0.23198727	-0.6013561
0.3745515	0.3941131	-0.52374977	0.040882554	0.33906746	0.3030356	-0.1251867	0.53178984	-0.5373197	-0.2346845	0.60386896	-0.48901746	0.42728606	-0.46757528	0.24783242	0.19929957
0.15609145	-0.94751704	0.3111357	-0.14022662	0.041405164	-0.4908127	0.0715081	0.054850083	0.19188659	0.044920728	0.55834556	-0.18050991	0.0645739	-0.42326638	-0.3172913	0.2918346
-0.64300585	-0.7746312	-0.4782799	0.47262216	-0.36753458	0.45389864	0.60118395	0.14901766	-0.19244288	0.22031724	0.33982155	0.47167894	-0.21471472	0.5312552	0.31977975	-0.9589936
0.029713504	0.07918024	0.20281872	-0.18952379	0.0018384719	-0.12416601	-0.14285122	-0.11011552	0.14097586	-0.109442964	-0.076154746	0.115010135	-0.121005096	0.052216165	-0.2349266	0.11654688
0.85298616	1.1528084	-0.9726363	0.23777276	0.87299097	1.1013472	-0.78142345	0.775316	-0.8500888	-0.89350724	0.5729094	-0.7140301	0.57119286	-0.5638122	0.7560302	0.35639676
-0.61181045	-0.6463892	-0.052303247	0.202805	-0.52403164	0.27299345	0.40397444	0.06503409	0.12550898	0.44218326	0.08803323	0.16414681	0.096011266	0.30475205	-0.009829553	-0.54752517
-0.59566164	0.18116383	0.4416237	-0.14959435	-0.6157386	0.33450466	0.12439543	-0.27394757	0.48070115	0.44320214	-0.40878224	0.37856156	-0.043345965	0.51579416	-0.3611857	-0.49394128
-0.4834939	-0.15807298	-0.3543384	0.33801657	-0.45736676	0.6194413	0.5663819	0.5239298	-0.056004904	0.6080823	0.46748388	-0.43475106	0.6647153	-0.14650123	-0.056569252	-0.37607756
0.17595287	0.2987285	-0.04952167	-0.13938825	0.08353117	0.0957962	-0.16814607	-0.040827014	-0.034735233	-0.08519229	-0.027475072	-0.10834766	0.063291214	-0.017342808	-0.044382352	0.12391401
0.111951604	-0.07839034	0.49744758	-0.5308113	-0.0045990366	-0.47272876	-0.45758948	-0.3638748	0.41243926	-0.11382944	-0.21422109	0.0036611322	-0.07943614	-0.054532226	-0.56807625	0.3821854
-0.33611485	-0.2247617	-0.25567225	0.2733976	-0.09945312	0.15348493	0.156768	-0.11550616	-0.15806799	-0.07020548	-0.012293501	0.401341	-0.401808	0.38420525	0.35886094	-0.46574783
-0.6888296	-0.55411655	-0.35103852	0.2338842	-0.6834034	0.6976874	0.676254	0.5822131	0.08340114	0.8116232	0.6950696	-0.8808199	0.78085893	-0.5852619	-0.52210283	-0.57988137
-0.1000592	-0.38313845	0.5048889	-0.22879446	-0.3032516	-0.210235	0.04151012	-0.18117149	0.4677526	0.2935605	-0.19196536	-0.037166648	0.097105846	-0.034931682	-0.53049856	0.2251675
0.20181805	-0.31984568	0.19266249	-0.13576014	0.12519217	-0.41715062	-0.11396583	-0.1279094	0.117661625	-0.19439727	0.14233078	0.011712698	-0.0888362	-0.22346863	-0.17285952	0.21525699
-0.30730176	-0.25643477	-0.15753044	0.09372729	-0.15630674	0.16727443	0.073580295	-0.16957423	-0.030166999	-0.039685562	0.018632907	0.37537268	-0.35493043	0.35719562	0.16374473	-0.42598477
-0.24028926	-0.23586868	-0.022607094	0.028549632	-0.18550465	-0.029945469	0.12399802	-0.16458812	0.0023124912	-0.00017159435	-0.071285054	0.2950605	-0.247211	0.28068537	0.122427896	-0.28750196
0.10282593	-0.3862226	0.14135131	-0.17360204	-0.005512124	-0.2175357	0.07904377	0.13030192	0.023776725	0.00981658	0.31665996	-0.29023483	0.29259187	-0.36788052	-0.338341	0.22986144
-0.29903322	-0.685249	-0.77859336	0.64913005	0.19747205	0.14058715	0.34987804	0.03803656	-0.74029684	-0.4672221	0.50949156	0.6619413	-0.70255566	0.41200328	0.70935106	-0.6745109
0.37189487	-0.4774608	0.31391948	-0.31011495	0.20778604	-0.52515686	-0.27519694	0.014054064	0.113525726	-0.10922168	0.54897803	-0.40545452	0.1647943	-0.5887743	-0.34685332	0.50134933
0.2502603	0.47384483	-0.64612734	0.27785987	0.33548996	0.5915058	-0.12415554	0.37681657	-0.55658025	-0.41606197	0.3478373	-0.20516129	0.15781954	-0.058753315	0.52648044	-0.088282146
-0.15961176	-0.18621324	0.021055851	0.03700789	-0.16063629	0.085466735	0.19230036	0.25854385	0.06447499	0.29513445	0.31254905	-0.31215313	0.40302804	-0.2624009	-0.2271994	0.04163117
-0.31228238	-0.049218744	-0.08713744	0.080916494	-0.20288473	0.18468353	0.11748533	-0.16632648	-0.013349858	0.07108913	-0.030267842	0.27550513	-0.17800029	0.34121224	0.1057019	-0.38632983
-0.24576613	0.2237615	-0.4344251	0.39226073	-0.19504757	0.79845613	0.3531072	0.33020157	-0.2542104	0.20639029	0.22389513	-0.12763937	0.31780598	0.11919213	0.29479077	-0.56586367
0.0407351	-0.45939142	0.14094491	-0.15483142	0.00097565784	-0.27645287	0.069528006	0.069722	0.08844184	0.060457096	0.30163258	-0.18652666	0.08739009	-0.28094065	-0.21332386	0.2127419
0.012148137	-0.20788467	0.47622612	-0.34867743	-0.1603541	-0.4435426	-0.25080296	-0.3215779	0.4337079	0.043267343	-0.261342	0.13937709	-0.14657426	0.018153893	-0.4038541	0.3087353
-0.13879381	-0.5744589	-0.42319635	0.28860018	0.27920845	-0.1543118	0.12653452	-0.087660655	-0.41158468	-0.62895334	0.39954162	0.4970522	-0.71755856	0.26361012	0.38814726	-0.3012066
-0.1909512	0.533135	0.2114835	-0.34901917	-0.07223398	0.36691162	-0.36128932	-0.32663473	0.1984541	-0.15329732	-0.43310043	0.36182278	-0.32489112	0.52478087	-0.04464523	-0.35645154
0.14123788	0.62360716	-0.26482567	0.033276238	0.36090392	0.46799994	-0.4507065	-0.024653168	-0.22864197	-0.5301012	-0.11973331	0.1515147	-0.1887266	0.2459063	0.27769664	-0.2707331
-0.07991344	0.18062478	0.35304895	-0.36854118	-0.1809473	-0.22359312	-0.3448053	-0.34144658	0.32527497	0.05666244	-0.2867154	0.10226336	-0.03164024	0.138544	-0.3848785	0.19375117
-0.15058784	0.24418442	-0.03282468	-0.084389664	-0.29700732	0.3582698	0.13159211	0.13533203	0.029425956	0.39505866	0.08568202	-0.329838	0.45851392	-0.09480846	-0.20808345	-0.043942433
-0.19029498	0.1510591	-0.7399027	0.4473123	-0.3509336	0.9302178	0.5173306	0.85495925	-0.37975043	0.5167514	0.844223	-0.89236873	0.9248284	-0.5574288	0.16494283	-0.33416823
-0.30557624	-0.6715179	-0.21233867	0.1841985	-0.10768699	-0.15936586	0.21014895	-0.058686223	-0.19579428	-0.09221853	0.23884958	0.35047197	-0.40700692	0.25491178	0.2438202	-0.26341993
-0.38680983	-0.6871599	-0.100932576	0.20013005	-0.33076155	0.08299734	0.4165448	0.20023447	-0.02687619	0.28414053	0.22589192	0.05324015	0.13331978	-0.05311599	0.093614615	-0.29592517
-0.09806552	-0.3928534	-0.15405874	0.1607829	-0.21275531	0.15944524	0.40357655	0.37137058	-0.08475453	0.30851898	0.43643945	-0.28491858	0.36828822	-0.3323099	0.014104887	-0.07764855
-0.13494192	-0.17282589	-0.10481617	0.10081973	-0.24362387	0.13996597	0.35843706	0.2863794	-0.067784354	0.27298918	0.3348247	-0.26477736	0.34106606	-0.22417298	-0.073344804	-0.07416246
-0.17312975	-0.25615913	0.27514055	-0.20215593	-0.2650676	-0.13165107	0.05862354	-0.16341145	0.25488928	0.21370909	-0.034478605	0.10690344	0.044445157	0.05284628	-0.25031623	-0.011982788
1.0718622	1.3491404	-1.2904874	0.4080497	1.1035595	1.2206467	-0.80376613	1.1726518	-1.2108554	-1.095845	1.1127902	-0.89831054	1.0430353	-0.8460485	1.0519149	0.29612154
-0.5179729	0.19428533	0.63394356	-0.45808434	-0.5002143	-0.013523594	-0.06574446	-0.35714853	0.67877096	0.32367504	-0.41709447	0.39547172	-0.07766689	0.5452091	-0.79944974	-0.21763363
-0.5179592	-0.1632259	-0.14842281	0.17584407	-0.41754588	0.4761358	0.38184038	0.024995511	0.03978601	0.40487957	0.04953663	0.15365154	0.031427648	0.34073365	0.13303757	-0.571339
1.0669794	-1.4437524	1.3250278	-0.99546397	0.9048	-1.1921284	-1.1973723	-1.252766	1.4314013	-0.69269806	0.7006144	-1.1084924	0.8303389	-1.2123613	-1.083841	1.1434608
-0.17447847	-0.3198811	0.061563972	0.037247017	-0.13466614	-0.17562324	0.06186327	-0.0109955305	-0.021570997	-0.020224754	0.18064202	0.03306356	-0.059168853	0.03660907	-0.08689719	-0.108770415
1.0316494	-0.14064229	0.5544487	-0.81943226	0.84263396	-0.81922454	-1.0695968	-0.14353195	0.16613415	-0.78335	0.57034624	-0.9248802	0.5402522	-1.0483067	-0.59349084	0.9398744
0.67802954	0.8901858	-0.73851323	0.021408154	0.8962606	0.8873222	-0.7577274	0.37617055	-0.6883225	-1.0203376	0.33016926	-0.23792122	0.015915744	-0.16598232	0.7188269	0.017967708
-0.23184508	-0.051977754	0.13628407	-0.081296615	-0.2537508	0.10006544	0.12586476	-0.0055144755	0.11592515	0.16625082	-0.055668965	0.03594576	0.11178278	0.054235015	-0.16312028	-0.06764483
0.2173317	0.61039877	-0.5140179	0.15121238	0.3065858	0.62776494	-0.01060219	0.26964217	-0.45851824	-0.27358088	0.16502236	-0.10497912	0.10045896	-0.025089499	0.43160394	-0.21107784
0.007295157	0.1229601	-0.31207335	0.1590073	-0.041828033	0.3875192	0.16955107	0.3473883	-0.23542982	0.068317875	0.2802226	-0.15552844	0.21619774	-0.11655153	0.15838183	-0.15527265
0.59455776	-0.7609498	0.892425	-0.68850505	0.29475954	-0.7992112	-0.54211915	-0.45450056	0.73365456	-0.18109158	0.17181917	-0.621158	0.28510302	-0.7825974	-0.8298733	0.73769945
-0.6002033	-0.22059359	0.22742979	0.04953536	-0.6432614	0.27937633	0.361947	0.047165114	0.45746684	0.5658065	-0.03103808	-0.09753714	0.35818812	0.16651647	-0.60419685	-0.32662728
0.36363056	-0.33990872	0.2570574	-0.23507294	0.08909099	-0.3514689	-0.09887819	0.16272667	0.115011044	0.14288324	0.40033185	-0.6565673	0.44111773	-0.7573737	-0.44519573	0.46118158
-0.008850722	-0.018556127	-0.05190445	0.029719736	0.06399423	-0.0019178457	-0.08452775	-0.09253818	-0.06893525	-0.15628436	-0.07932919	0.16410275	-0.25240806	0.16563731	0.13773283	-0.1419627
0.2802178	0.61188567	-0.84166026	0.29622626	0.28073162	0.9155678	0.076245934	0.6549743	-0.6763026	-0.0959376	0.65552855	-0.6130101	0.51381826	-0.43356872	0.4676723	-0.124361016
-0.05051811	-0.332628	-0.002608555	-0.04167602	0.00043383	-0.23720953	-0.028793547	-0.102091685	-0.020767627	-0.09403099	0.008109829	0.21421261	-0.2748029	0.026835667	0.028746463	-0.061003532
-0.16758925	-0.3349477	-0.4837066	0.3711052	0.21513963	0.25787133	0.25720367	0.18910621	-0.46230808	-0.45676622	0.3300651	0.29158887	-0.40434316	0.26460192	0.4913794	-0.4341357
-0.19330627	-0.1632004	0.50379956	-0.29674047	-0.3695348	-0.21634337	0.0024861286	-0.15993735	0.5091344	0.3454273	-0.17780118	-0.15330644	0.2333354	0.04449545	-0.65817815	0.21476865
-0.7320624	0.17235819	0.5644333	-0.3627346	-0.69000244	-0.04575965	-0.09177648	-0.4267969	0.63461816	0.4290056	-0.43537167	0.36506215	-0.20404114	0.46755585	-0.5295212	-0.36239883
0.048429966	-0.04216373	-0.15116498	-0.008951291	0.11680381	-0.036220323	-0.00616902	0.123243436	-0.16402595	-0.061098512	0.23448722	-0.13611096	0.02395503	-0.12649035	0.050578702	0.02270311
-0.0844632	-0.4138112	0.029020319	0.0031893845	0.055065457	-0.15560564	0.010165911	-0.11409612	0.025299346	-0.17239666	-0.052443154	0.30553806	-0.31070775	0.17841172	-0.017711548	-0.10225554
0.8187357	-0.9480195	0.7769289	-0.6538186	0.84394985	-0.8900862	-0.7584331	-0.3689822	0.40095443	-0.82213825	0.82567614	-0.6771739	0.28874955	-0.8917211	-0.7211665	0.86755824
-0.26409504	0.6746292	0.45031208	-0.566532	-0.24232922	0.09567209	-0.7716546	-0.55477595	0.42737085	-0.10253005	-0.6257708	0.49881953	-0.5236638	0.6134853	-0.40915304	-0.38961634
0.06062882	-0.44197476	0.07180623	-0.03899716	-0.014766371	-0.15684496	0.05394088	-0.008968115	0.10212947	0.039651737	0.124750175	-0.09188901	0.015471587	-0.14314197	-0.16469994	0.123504095
0.33009624	0.19271867	-0.31293508	-0.00070380024	0.30114266	0.06406289	-0.13941161	0.25883868	-0.3596204	-0.24960323	0.46700355	-0.29751197	0.1588017	-0.3683167	0.10633662	0.18321349
0.22121385	-0.28057244	-0.080977656	-0.08960647	0.26507485	-0.2098119	-0.025896447	0.0684724	-0.16261613	-0.24191342	0.47503474	-0.14481378	-0.05536019	-0.26187307	-0.033529658	0.16669169
0.4755207	0.20459643	0.06548867	-0.39195177	0.3670463	-0.13660605	-0.3521025	0.07295814	-0.109071285	-0.16188106	0.25677207	-0.44916856	0.3417981	-0.47672552	-0.2217059	0.48083258
-0.04761604	0.12885593	0.30045575	-0.30218086	-0.1763795	0.056230906	-0.04044399	-0.022260845	0.2626373	0.33233526	-0.14031677	-0.115263306	0.33141625	-0.042714797	-0.4394852	0.09212141
-0.17898734	-0.5270932	0.1710456	-0.03896569	-0.07309814	-0.3250769	-0.10868637	-0.30292434	0.11038996	-0.08073301	-0.068906344	0.32830116	-0.3669439	0.214565	-0.00851581	-0.07717928
0.15496379	0.2767194	0.10556378	-0.18862024	0.15383345	-0.08355193	-0.23959099	-0.12004588	0.055504758	-0.18782465	-0.09719476	0.033684187	-0.038509235	0.043606304	-0.11821225	0.120347
-0.46316266	0.37268278	0.5534639	-0.45630416	-0.57066196	-0.13238543	-0.12969685	-0.44086742	0.59871805	0.3909553	-0.50317967	0.38651833	-0.17384562	0.51948553	-0.611128	-0.13396384
0.42749453	0.4287042	-0.1090518	-0.19056432	0.4301664	-0.0487031	-0.4901303	-0.025460443	-0.13959713	-0.56204814	-0.019036518	-0.051019188	-0.12431649	-0.06970048	0.058227465	0.24304624
0.5015559	-0.5966565	0.7191803	-0.5858847	0.2371199	-0.81697536	-0.47975639	-0.29037994	0.55764633	-0.17681201	0.11204489	-0.33151096	0.09603543	-0.64268255	-0.71409357	0.7881661
0.9215838	-1.2569138	1.1754996	-0.86431104	0.66643137	-1.0393654	-0.8569079	-0.51882815	1.0981078	-0.3884243	0.68402994	-0.9674946	0.51653683	-1.0385697	-0.94763976	1.0347053
-0.15203547	-0.12587176	0.46365786	-0.26199907	-0.25469145	-0.20192793	-0.11030891	-0.2408541	0.4184287	0.214515	-0.20141849	0.07942075	-0.008064744	0.07136233	-0.4255679	0.11386298
-0.13232866	-0.3443637	0.06567689	-0.0008103947	-0.22550839	-0.05306238	0.20985596	0.15303467	0.064019725	0.27081683	0.19806384	-0.28832862	0.327233	-0.31388152	-0.2694317	0.03945839
-0.28793058	0.05404146	0.14884196	-0.08459787	-0.33680978	0.15433525	0.09244452	-0.13297045	0.26477644	0.34139323	-0.15121037	0.11811418	0.087497085	0.14265507	-0.23808043	-0.1970167
-0.66405296	-0.79852766	-0.47951576	0.5816714	-0.06239653	-0.035710994	0.5148732	-0.4218365	-0.40405086	-0.5756632	0.14680313	0.9134551	-0.886829	0.7614287	0.62000495	-0.796594
-0.11768463	-0.14652544	0.27919438	-0.25124496	-0.3481199	-0.08857193	0.06534183	-0.061193828	0.3702935	0.38981983	-0.032425668	-0.17649406	0.333291	-0.1469201	-0.46640706	0.099310495
-0.0105751185	-0.9699186	0.4957854	-0.1899186	-0.09335361	-0.5230392	0.10648951	-0.34951335	0.36229804	0.07052293	0.49290907	-0.009548351	-0.21716914	-0.24361266	-0.38768873	0.1766482
-0.40687656	-0.5000467	0.17305954	0.00036516986	-0.43324435	0.04547001	0.35605285	-0.0719441	0.2871071	0.41598204	0.0630045	0.1400485	0.04380676	0.052466605	-0.187299	-0.19021659
0.046674233	0.07270487	-0.053978812	-0.04952622	0.16253588	-0.030119678	-0.16426295	-0.12131452	-0.0068345736	-0.1856776	-0.07641963	0.16793711	-0.16616338	0.10951026	0.061340544	0.0024416877
0.4764257	-0.7685998	0.41171688	-0.3867842	0.43556982	-0.71988446	-0.43979156	-0.348301	0.16484046	-0.6192521	0.29631838	-0.14081268	-0.27189216	-0.3722991	-0.34211928	0.4528153
-0.049557257	-0.22645973	-0.401973	0.24570534	0.117113486	-0.12778357	0.0023894657	-0.181185	-0.29356968	-0.33202162	0.16594177	0.4460829	-0.4792782	0.35657907	0.46125174	-0.31575727
0.117119804	-0.088183805	0.18613856	-0.22293112	-0.0037551282	-0.10625478	0.021369752	0.17203175	0.031844653	0.17448016	0.34873787	-0.48057085	0.5264133	-0.50942576	-0.32268977	0.24944091
-0.21520463	-0.30237985	0.1344157	-0.015099293	-0.17328069	-0.14776541	0.053111047	-0.15197591	0.16031851	0.06006205	-0.060958795	0.26672846	-0.26124412	0.16360575	-0.0010516563	-0.096157715
0.1216926	-0.17750421	-0.40187615	0.27116808	0.28968894	0.17772242	0.062843755	0.24485901	-0.43612978	-0.40753838	0.33421823	0.18329376	-0.2872923	-0.02368743	0.41131923	-0.16685013
0.87795424	1.0504546	-1.0075663	0.023212366	0.75291234	0.99064815	-0.64377415	0.78275543	-0.87766445	-0.79031557	0.7871611	-0.8738348	0.957291	-0.7705937	0.77666575	0.47704253
-0.042504292	0.20184453	-0.16554135	0.10345252	0.020389512	0.30903232	0.11187672	0.20931102	-0.1456274	0.0606431	0.10410191	-0.18209346	0.21015117	0.021711577	0.08521769	-0.17034386
-0.49605772	0.04505572	0.34788072	-0.2181407	-0.3946357	0.087678164	-0.100876	-0.3455836	0.3263965	0.22705919	-0.38547108	0.5076768	-0.35879403	0.52614987	-0.16129361	-0.41554058
-0.30451787	0.19925544	-0.24553871	0.16102713	-0.29488885	0.5670106	0.29554507	0.23593274	-0.07454882	0.40646696	0.1600568	-0.23777686	0.44984257	0.05334953	0.026207231	-0.37713563
-0.40416017	0.43812117	0.25083068	-0.20292	-0.26903197	0.4115152	-0.18660668	-0.38880882	0.32920724	-0.014793497	-0.50593716	0.53580827	-0.42673293	0.67006123	-0.15178679	-0.6252409
0.28647006	-0.26010898	0.54602414	-0.46955904	-0.014809801	-0.5034174	-0.36311635	-0.26981136	0.38922176	-0.010199046	-0.09835393	-0.18851061	0.08450625	-0.25834894	-0.60794294	0.51064974
0.1115199	-0.1558232	0.03750466	-0.07801269	0.030403256	-0.0045173755	0.06861738	0.13122593	0.019071123	0.09436114	0.16742077	-0.28764582	0.2510787	-0.29796964	-0.15030152	0.097862706
-0.15841268	-0.30152318	0.48105744	-0.2621872	-0.1868526	-0.40063402	-0.19360678	-0.40703407	0.43568656	0.10870864	-0.2667765	0.20843704	-0.28750348	0.13899699	-0.36059842	0.14359848
-0.48374194	-0.8965348	0.46672153	-0.046839513	-0.6496158	-0.08630674	0.38172135	0.07625801	0.5604308	0.6242233	0.217451	-0.22072326	0.39929524	-0.18484136	-0.599235	-0.07777013
-0.040673126	-0.051580977	-0.2958911	0.16156319	-0.05218281	0.25782993	0.21598122	0.24155387	-0.21631067	0.152749	0.25619233	-0.17593968	0.17179109	-0.09337131	0.110152826	-0.1248873
-0.4087875	-0.67721176	0.2963442	-0.013093018	-0.4712085	0.051081195	0.3164416	0.092596956	0.30851206	0.49183458	0.010000767	-0.06865385	0.26525548	-0.041087598	-0.338702	-0.10774671
-0.5348908	-0.18984343	-0.31183937	0.24706624	-0.54665935	0.5970096	0.48738125	0.50170815	-0.1439813	0.65227246	0.54589665	-0.577819	0.71219546	-0.17611963	-0.1561191	-0.39984953
-0.39360592	-0.11742529	0.12692612	0.030768074	-0.45588246	0.34054613	0.3238697	0.16404878	0.25424007	0.50963	0.0062262807	-0.12023626	0.43347976	0.03960622	-0.40249547	-0.23296833
-0.21930058	0.14442502	-0.08033749	0.06781327	-0.0026642727	0.27204928	0.06677082	-0.1404164	-0.020930907	-0.118259326	-0.105965815	0.29057962	-0.25891408	0.34041804	0.20572332	-0.33046365
-0.20586039	0.1702442	-0.26686662	0.18768588	-0.3130028	0.5587988	0.28635907	0.4247483	-0.102131814	0.43224457	0.34135017	-0.4890862	0.6268036	-0.23911665	-0.074497886	-0.25582197
0.9818779	-1.1539963	1.1021074	-0.8845132	0.9414148	-1.063055	-1.0013034	-0.93684494	0.980824	-0.85765725	0.5042626	-0.84689504	0.29620135	-1.0180335	-0.8358466	0.98610723
-0.13998684	-0.31341177	0.014977981	0.023932232	-0.06909035	-0.030777227	0.073209524	-0.08234284	0.05606926	0.044651207	-0.0561915	0.25139892	-0.21636336	0.20270367	-0.02263116	-0.15700354
0.12628464	0.23844117	-1.0808192	0.5501372	0.42405137	0.79992765	0.1585238	0.6963131	-0.94095796	-0.5128833	0.87756896	0.0059664603	-0.10249157	0.028604638	0.80262893	-0.40156895
0.17700924	-0.12244771	0.053046614	-0.11287657	0.271054	-0.21227257	-0.19460376	-0.10153565	0.007911736	-0.27614564	0.0026009777	0.066624515	-0.08144595	-0.1415411	-0.067053206	0.18429492
-0.4635641	0.032958232	-0.009330544	0.060119748	-0.2673524	0.35867324	0.12227034	-0.2256483	0.07681608	0.042466752	-0.22443336	0.4722052	-0.34556517	0.5390055	0.1110086	-0.57494146
-0.56602854	0.20560898	0.85616094	-0.60576403	-0.50938934	-0.5443346	-0.57292736	-0.73547053	0.80649734	0.04712651	-0.808847	0.8307856	-0.7422495	0.831723	-0.5834259	-0.13703749
-0.4707445	-0.82901895	-0.9500378	0.75851375	0.35024133	0.3884078	0.7521157	0.11916896	-0.8998779	-1.009454	0.8241405	0.8764334	-0.9023568	0.6892689	0.8060445	-0.85075563
0.03027246	0.29249713	0.14177029	-0.20390432	-0.11533766	0.073640585	-0.061347514	0.099993765	0.11149356	0.34404004	0.025783554	-0.58272386	0.5685057	-0.38831097	-0.35661224	0.27803785
-0.22012646	-0.39769393	0.049498964	0.040230896	-0.2555916	0.07723981	0.28154176	0.09025896	0.058621526	0.30278185	0.14233881	-0.057135526	0.1467506	-0.1477339	-0.0909899	-0.07973981
0.5997694	-0.0037813496	0.25704545	-0.526765	0.5417592	-0.4886634	-0.7171605	-0.1655264	0.034095585	-0.5114031	0.02390465	-0.21234708	-0.067517295	-0.4581017	-0.30629498	0.5853021
-0.25986072	-0.0724062	-0.027267683	-0.010883565	-0.17614691	0.18613149	0.16004153	-0.07751844	0.0047154296	0.05200323	-0.113180585	0.20446847	-0.035100248	0.27246353	0.042896356	-0.25179422
-0.35614857	-0.59975916	-0.30650607	0.34630248	-0.25034112	0.20905258	0.50448817	0.16180505	-0.17564242	0.18169568	0.3520871	0.14081825	-0.054793943	0.1721557	0.19398057	-0.40784135
-0.23494558	-0.24484472	-0.026288114	0.08261596	-0.25804353	0.14882742	0.26131192	0.112954356	-0.0006353295	0.22861136	0.1648976	-0.07389161	0.22375569	-0.074379206	-0.11044142	-0.16054682
0.068341285	0.058598228	-0.5770412	0.46059522	0.5820933	0.4866201	-0.1620914	0.010176356	-0.50766635	-0.88171524	0.24238156	0.45852137	-0.6127168	0.3290376	0.70788735	-0.53411424
-0.6008565	-0.06731255	0.31236717	-0.036607366	-0.45172352	0.10625581	0.049233086	-0.36963093	0.3158355	0.19259135	-0.40655214	0.56911886	-0.44469783	0.67275876	-0.061344758	-0.6145975
0.1269471	-0.23799591	-0.5254081	0.3187063	0.4641173	0.0020325207	-0.046819247	0.12383846	-0.5976948	-0.8935115	0.5682783	0.24285148	-0.57133234	0.00040888385	0.52908313	-0.15050837
-0.61362886	0.17800389	0.750938	-0.5613572	-0.584763	-0.2650098	-0.42569113	-0.5635714	0.6873634	0.35959113	-0.61698407	0.50701356	-0.35594338	0.5308072	-0.61538106	-0.09652987
-0.7062834	0.41949305	0.7370855	-0.53632975	-0.7431505	-0.15606974	-0.4017611	-0.6798378	0.7583056	0.35798186	-0.7767717	0.69894266	-0.5778969	0.7846325	-0.59437627	-0.46864015
-0.32160977	-0.62227774	-0.9339533	0.6774918	0.28513262	0.1601014	0.26898363	-0.19469649	-0.78097844	-0.80018806	0.42274925	0.9272599	-1.0441312	0.79814345	0.83377594	-0.76236683
-0.4379425	-0.12341244	0.6656744	-0.4112764	-0.53572685	-0.4390404	-0.30042997	-0.59282935	0.6445975	0.36024976	-0.45875162	0.40113106	-0.1953148	0.3405083	-0.5721327	0.099007726
0.07847009	0.3460179	0.10916625	-0.22081152	0.007768999	0.14204557	-0.1316153	-0.024735106	0.118861996	0.112459525	-0.076010466	-0.11321059	0.11796821	-0.045520853	-0.15405682	0.05608063
-0.1689625	0.098465405	0.3428376	-0.2581053	-0.21269873	-0.054341566	-0.11786066	-0.19590421	0.28873366	0.13381076	-0.21817936	0.16397458	-0.09791254	0.16589028	-0.34014574	0.011965116
-0.41952595	0.026977802	0.26933277	-0.17778003	-0.3583001	0.07346194	-0.04069009	-0.303214	0.27508813	0.18723139	-0.3454803	0.37826502	-0.14049742	0.42434978	-0.1934659	-0.2920156
0.13688856	-0.18332067	0.07127626	-0.10136802	-0.020355929	-0.09222502	0.0015013476	0.15293045	-0.03882843	0.102760576	0.43416464	-0.3368487	0.25893548	-0.32295415	-0.15879929	0.24095424
-0.39003873	-0.070730634	-0.71791077	0.49520704	-0.47201267	0.9048812	0.6536427	0.8654501	-0.35741627	0.6574793	0.9402709	-0.8806563	0.92792034	-0.6387788	0.060318384	-0.46594548
0.70150596	-0.24089786	0.39485303	-0.5327564	0.6061033	-0.56224287	-0.67223555	-0.14960821	0.013706692	-0.5224467	0.53051287	-0.48023757	0.1352238	-0.67761374	-0.45046377	0.68816596
0.4894106	-0.30469012	0.4416886	-0.50928104	0.21723026	-0.516636	-0.38950786	-0.13977051	0.23811784	-0.07873166	0.50534415	-0.5233353	0.31838197	-0.7070272	-0.5483707	0.6114168
0.6738116	0.1760041	0.15674442	-0.42607802	0.49175766	-0.30039653	-0.40419668	0.30091467	-0.14370407	-0.2674687	0.6728928	-0.93952763	0.7268097	-0.9074891	-0.401283	0.74348634
-0.21679908	0.29036027	-0.05565681	0.014546219	-0.23050389	0.33286625	0.12100779	0.011843029	0.11845765	0.24418993	-0.16885087	0.061160482	0.16368206	0.23922959	0.0043110163	-0.26847756
0.3581666	-0.15267481	0.11875273	-0.13506438	0.21770598	-0.19285719	-0.039461743	0.20229635	-0.06501608	-0.06599981	0.33711472	-0.40769398	0.28087443	-0.4808667	-0.23606192	0.28470388
-0.04023954	-0.20413165	0.25390917	-0.14575492	-0.12971328	-0.18227407	0.03293041	-0.093065776	0.26841465	0.097052895	-0.07914798	0.018420963	0.11817491	-0.08928303	-0.28679943	0.11411357
-0.058954425	-0.24332778	-0.13706699	0.009711976	0.011381302	-0.074420586	0.07931505	-0.05164173	-0.13946228	-0.014292856	0.19582312	0.11900334	-0.21716699	-0.033160307	0.111302964	-0.048763257
-0.038119894	-0.35128874	-0.09096712	0.052013148	-0.08690691	-0.05757766	0.099645846	0.12980375	-0.0909186	-0.02382813	0.2023068	0.023138931	-0.07523739	-0.09677966	0.05041161	-0.06302191
-0.026159186	0.3359196	0.11281275	-0.14208898	-0.099639446	0.15719996	-0.15051326	-0.05630575	0.083629675	0.06366813	-0.20098116	-0.022256384	0.08506159	0.108402885	-0.14711536	-0.041514456
0.2726806	-0.6658111	0.38125554	-0.21235555	0.008442179	-0.4109992	-0.008756681	0.17210747	0.21077201	0.10677669	0.4344446	-0.4791132	0.3462962	-0.6272612	-0.4052091	0.47491693
-0.53236276	-0.20478559	0.032363016	0.009507716	-0.13781622	0.04839485	-0.09286416	-0.28919974	0.07937228	-0.3293177	-0.25113565	0.63979965	-0.663498	0.6141233	0.124620125	-0.56093955
0.3196333	0.13397667	-0.3325312	0.05526444	0.24542943	0.17499065	0.049897872	0.46263316	-0.4488766	-0.012950914	0.5276996	-0.41937217	0.43358028	-0.45811877	0.0672041	0.120252505
-0.6675328	-0.08868653	-0.3488797	0.40846667	-0.6463434	0.8924166	0.6964719	0.7152128	0.0703035	0.7883998	0.5736785	-0.84200996	0.89976966	-0.3923211	-0.3515187	-0.6577313
-0.43492976	-0.13140811	0.1320097	-0.057397287	-0.2738012	0.051264334	0.13332936	-0.23169258	0.21719508	0.08765496	-0.24755907	0.45845515	-0.3672411	0.43562263	-0.048807085	-0.35425127
-0.51217204	-0.6306648	-0.012486792	0.09889897	-0.34839794	0.034957845	0.21045502	-0.07923532	0.12376988	0.11591469	-0.06116895	0.3196428	-0.20990877	0.3286828	0.04343278	-0.4265318
-0.53702325	-0.26025388	-0.51616704	0.3631659	-0.639469	0.9076273	0.71227384	0.8728159	0.0345204	0.80937815	0.83297026	-1.1133933	1.065351	-0.6573179	-0.40313232	-0.41366625
-0.45385447	-0.65794814	-0.039601766	0.18106921	-0.38074237	0.08546782	0.3254399	-0.01917282	0.041897967	0.21158041	0.0066628405	0.3022829	-0.1493703	0.26236498	-0.010615563	-0.40555105
0.5368488	-0.1851133	0.3339795	-0.37978882	0.37833786	-0.40662664	-0.5322774	-0.10920115	0.07962483	-0.3800128	0.38770816	-0.3462011	0.096995644	-0.4811768	-0.3321077	0.48610684
-0.029459838	0.33201522	-0.5457306	0.35548502	0.027179519	0.73631227	0.19496989	0.5648684	-0.43864855	0.09636231	0.46040863	-0.3385802	0.43700147	-0.12516741	0.28028524	-0.30272
-0.235087	0.05874957	0.032338355	-0.040749565	-0.03399889	0.058009066	-0.09461735	-0.29390267	0.050729357	-0.24734476	-0.2707864	0.47226351	-0.45529795	0.5120947	0.13961484	-0.31947473
0.57861596	0.78532815	-0.81714195	0.32005602	0.626483	0.8048298	-0.34600192	0.70198214	-0.76785237	-0.7165485	0.66352737	-0.48441234	0.420154	-0.3157431	0.70585096	0.06318692
-0.35040593	-0.2110142	0.09279799	0.046310615	-0.45941254	0.21828797	0.2740353	0.14374182	0.23941904	0.38044316	0.080239035	-0.13198297	0.36437887	0.036089513	-0.2304592	-0.26367828
0.04632259	0.17913572	-0.45767576	0.1722738	0.22043078	0.41377383	0.10215423	0.21068726	-0.35688743	-0.16000538	0.19899061	0.0070811124	0.00076743006	0.036170058	0.30900902	-0.2606614
-0.028368281	0.08568438	-0.3107958	0.26482037	0.119441055	0.31866756	0.09645171	0.1204413	-0.3135853	-0.16403012	0.1533477	0.20231125	-0.18401429	0.1311399	0.3054946	-0.31613752
0.2452922	0.6016438	0.04020478	-0.35262817	0.1433605	0.068703115	-0.22979657	0.07543859	0.011460655	0.013893437	-0.06451	-0.3598234	0.4423996	-0.18671264	-0.30062467	0.34135517
-0.30042398	-0.5878787	-0.5993976	0.4218084	-0.3819815	0.35075912	0.5183173	0.7522599	-0.32067537	0.44931376	1.0040591	-0.6781446	0.66347504	-0.5616971	0.072216354	-0.23683536
0.23997483	-0.14932306	-0.033899825	-0.08038862	0.37977114	-0.2651479	-0.2773844	-0.115592346	-0.13568735	-0.41524413	0.18368092	0.0024204864	-0.2287791	-0.18340883	0.018373992	0.2533874
-0.40311757	-0.8188392	-1.0260963	0.7999219	0.40873963	0.4641673	0.70264167	0.13635507	-0.8715072	-1.0333526	0.73321855	0.89428276	-0.9845404	0.7294248	0.903905	-0.93375146
0.42556313	-0.92831033	0.6284015	-0.4192054	0.37158963	-0.7365164	-0.48498285	-0.52337646	0.39777833	-0.5846636	0.20678627	-0.07734068	-0.28066832	-0.4221101	-0.41160256	0.478643
-0.1904301	-0.32609963	0.27887502	-0.18656655	-0.077023186	-0.28020918	-0.21079879	-0.39607772	0.21768743	-0.12193095	-0.23801294	0.48238096	-0.42616507	0.31911126	-0.07413545	-0.10175981
0.4191035	0.46114618	-0.018861057	-0.22932546	0.26573372	-0.004092271	-0.5812334	-0.02885459	-0.097674176	-0.32511985	-0.028534284	-0.21749058	0.22134013	-0.20082808	0.004950784	0.3426547
-0.036927566	0.018601906	-0.13481483	0.13532269	-0.15541461	0.1998624	0.2421564	0.2848182	-0.066431515	0.24161884	0.3023195	-0.29144424	0.38206443	-0.19530058	-0.12517412	0.00509377
-0.32366535	0.009954372	0.3438632	-0.28436482	-0.39452335	0.013879514	-0.022998711	-0.24681714	0.34301963	0.4100658	-0.31477168	0.07933683	0.11878835	0.25082123	-0.34419802	0.02477521
0.33078235	0.3700551	-0.8201791	0.36054292	0.69216996	0.5643741	-0.20594038	0.40785766	-0.7272104	-0.8732878	0.55150986	0.06622898	-0.3239651	-0.039804764	0.7651756	-0.26918828
-0.031808984	0.26275083	0.20130955	-0.27110958	-0.10888645	-0.06692936	-0.18554659	-0.15640749	0.20504291	0.030667122	-0.22724603	0.01741632	0.0005609442	0.115663856	-0.29224843	0.1399184
-0.15757094	0.03371325	-0.27614805	0.20348094	-0.29877192	0.4084253	0.43303025	0.66098374	-0.18008277	0.53278834	0.69232225	-0.9537151	0.9673445	-0.690894	-0.15388317	-0.022785755
-0.17404452	-0.34979674	-0.7474077	0.58075947	0.33127213	0.29713103	0.2928241	0.25409573	-0.7320808	-0.6549178	0.6546043	0.52437145	-0.6861713	0.29727346	0.67210716	-0.5395086
-0.030525623	-0.64150983	0.09509855	-0.00040624902	0.08964614	-0.4016361	-0.0029129968	-0.3069079	0.002596076	-0.2611102	0.11387126	0.37829247	-0.4648582	0.0036507058	-0.024997486	-0.0063652406
-0.042476006	0.94301254	0.39797202	-0.65598756	0.01836747	0.1520515	-1.0323	-0.53475016	0.38813204	-0.20919636	-0.6750412	0.20589879	-0.22249706	0.5274138	-0.31001157	0.005615164
0.1970083	0.15656756	-0.7748852	0.3000638	0.4317626	0.42183992	-0.08045345	0.3451404	-0.74054664	-0.8567946	0.6032257	0.0015503204	-0.1598128	0.08908595	0.6690363	-0.20144354
-0.577032	-0.17568673	0.31832182	-0.05361754	-0.5219112	0.188305	0.23473911	-0.29763055	0.4140664	0.40725422	-0.31137285	0.34901714	-0.16003343	0.44047132	-0.26238933	-0.3690975
-0.5579274	-0.1642864	0.23909736	-0.08894067	-0.42316157	0.2001567	0.18856671	-0.08897619	0.35988584	0.3478935	-0.18077621	0.20090379	0.047134493	0.36126372	-0.28871235	-0.30585238
-0.47544754	-0.34596515	0.02465019	-0.029789913	-0.2810297	-0.045780934	0.12838916	-0.2332035	0.09053624	0.13305724	-0.09844813	0.40242842	-0.19657724	0.40807208	-0.032934137	-0.39047477
-0.23620234	0.06837363	-0.28434965	0.21305947	-0.35446513	0.5849395	0.4056005	0.6183172	-0.1930678	0.47116587	0.62646264	-0.63471526	0.76990604	-0.49310207	-0.13014846	-0.19124326
-0.5196586	0.19621615	0.4154231	-0.33684134	-0.44028446	0.077399395	-0.08255163	-0.36009997	0.42777145	0.23030008	-0.29819053	0.32342035	-0.17208762	0.40342793	-0.3782918	-0.3867193
0.47725835	-0.81114286	0.6757035	-0.52101123	0.3563654	-0.7087623	-0.41643444	-0.24510635	0.5453308	-0.21960026	0.6384213	-0.55272645	0.23099123	-0.7370046	-0.6610123	0.59976137
-0.12550724	-0.002709429	-0.62227386	0.32152885	-0.1048945	0.53692883	0.2924863	0.3357706	-0.4692222	0.06473778	0.44905016	-0.09466725	0.128621	-0.005296918	0.44760838	-0.3760924
-0.05766752	0.17884469	-0.30091444	0.12052012	-0.0830433	0.4086102	0.09894274	0.1963563	-0.15044263	0.10845363	0.11930799	-0.047359075	0.18109143	0.084646165	0.20399083	-0.2793128
0.110985585	-0.018843303	0.3664233	-0.38157767	-0.018110689	-0.22591317	-0.3921675	-0.2535649	0.22166616	-0.0016180625	-0.22375783	0.025847146	-0.03096113	0.013036405	-0.36559343	0.2784157
-0.45456457	-0.30664718	-0.2907141	0.24762014	-0.5163331	0.5926592	0.6238982	0.53558105	0.03668841	0.6009008	0.5756569	-0.60020965	0.7346053	-0.4308986	-0.3861934	-0.3691735
0.27865756	0.11945403	-0.21023282	-0.047440365	0.2068141	0.015723156	-0.08100238	0.25083834	-0.23538797	-0.1113316	0.41722193	-0.3588198	0.2857447	-0.30742547	0.013074595	0.21502282
0.9809875	1.2273644	-1.1575593	0.3446609	1.0064042	1.1758763	-0.66297317	1.034206	-1.0272477	-0.9791881	0.90418625	-0.8698248	1.0830016	-0.7406924	0.95152277	0.29524508
-0.741416	-1.0156367	-0.9672993	0.9465378	0.055720516	0.6196395	0.91767573	0.097641304	-0.8258364	-0.9684474	0.63985896	1.0252428	-1.0612698	0.9787902	0.9668255	-1.0838451
0.3185234	0.448747	-0.027386986	-0.31634316	0.2905368	0.112494275	-0.35927677	0.025201185	-0.09033752	-0.18992399	-0.08622594	-0.2699959	0.19813311	-0.16825993	-0.10631653	0.33562028
-0.2715123	0.03479686	0.11817306	-0.03976724	-0.115644686	0.16234818	-0.01854672	-0.2807411	0.13769066	0.06866109	-0.22889581	0.32318816	-0.2118729	0.40897202	-0.08678393	-0.2143916
-0.32114053	-0.52307326	-0.04380106	0.09831069	-0.25228137	0.071127266	0.28916186	0.09702611	0.028207775	0.23997234	0.19153021	0.109149985	0.07996807	0.060453165	-0.015060227	-0.22269604
-0.121172585	-0.59707284	0.8141524	-0.43768674	-0.29183787	-0.5525956	-0.27340984	-0.5239881	0.6883632	0.07112864	-0.39499918	0.3149627	-0.32596263	0.1289936	-0.62014407	0.29891878
0.2411622	0.46742418	-0.16966863	-0.1915746	0.29195613	0.23860167	-0.31410095	0.08210919	-0.23617026	-0.29937607	0.0072694565	-0.17569225	0.12795468	-0.075667076	0.11571907	0.08864638
-0.49000826	-0.05257451	0.20707509	-0.13450362	-0.11388078	-0.27057305	-0.4939357	-0.5755485	0.24983436	-0.2543009	-0.36498007	0.83532	-0.91812515	0.83178866	0.048056435	-0.4125014
0.15448211	0.36944473	-0.027949054	-0.12433577	0.10205975	0.1909061	-0.14507778	0.05109804	-0.107212886	-0.1062071	-0.011400666	-0.14853941	0.19852489	-0.05384352	-0.030495249	0.11865049
-0.4949317	-0.12397153	-0.3817979	0.3131946	-0.44409484	0.7116222	0.5539958	0.48615482	-0.054567967	0.5777969	0.37480965	-0.42672604	0.5817168	-0.17000616	-0.12081869	-0.5154434
0.025055312	0.16202183	0.32765684	-0.32455453	-0.10721663	-0.14332277	-0.16253302	-0.18110645	0.31012976	0.118022546	-0.20520946	-0.0130384	0.033443067	0.019936379	-0.43369487	0.2723249
-0.6659356	-0.74683636	-0.54245967	0.4859041	-0.47506088	0.53515375	0.6685074	0.46532658	-0.2477595	0.3708488	0.5965575	-0.121577755	0.23524556	0.09366401	0.19282305	-0.68499804
0.18083909	-0.08000603	0.21241522	-0.24205972	0.07983854	-0.22307836	-0.22483462	-0.08498259	0.1423071	0.0024708633	0.054021034	-0.0976723	0.008663278	-0.21759753	-0.22633684	0.21809699
-0.5868679	-0.22852685	0.2162843	0.059482373	-0.42463303	0.16959946	0.13401651	-0.23556419	0.2425202	0.18722472	-0.32533112	0.48654047	-0.26982063	0.59015614	-0.012834907	-0.6519579
-0.16604368	0.26788145	-0.10344976	-0.014061579	-0.3395868	0.4765163	0.22837332	0.21027753	0.057926644	0.32610458	0.06524497	-0.23504817	0.42002726	-0.048509415	-0.1340046	-0.23155499
-0.3963904	-0.018218102	0.15391698	0.012125936	-0.47131923	0.32443118	0.25378793	0.101265855	0.27159068	0.5775589	-0.05483636	-0.24731897	0.42866734	-0.08304399	-0.42509407	-0.22554184
-0.36607087	-0.18930542	0.0005409611	0.0114376955	-0.23594294	0.027953468	0.049477037	-0.22112131	0.12992062	0.15513721	-0.1032197	0.3936333	-0.24442373	0.40136242	0.019114485	-0.2473651
-0.124037616	-0.054412052	-0.32889012	0.24342075	0.16187938	0.24935281	-0.048535183	-0.18218905	-0.2479684	-0.53026533	-0.076489195	0.37761834	-0.5369193	0.36960512	0.46941072	-0.35685188
0.34585258	0.78095317	-0.6741295	0.19660729	0.4103015	0.7214018	-0.15463148	0.48195717	-0.5459055	-0.3362356	0.29469448	-0.36929896	0.29948878	-0.11349051	0.51263994	-0.12354926
-0.4117616	-0.6614443	-0.5476614	0.47801363	0.0842692	0.16290215	0.41724896	-0.035219535	-0.4633004	-0.4195486	0.40947005	0.608523	-0.5820956	0.53261167	0.547254	-0.6388574
0.32392263	-0.04721909	0.034070037	-0.06017611	0.2121903	-0.2070044	-0.14273182	0.13767748	-0.08782624	-0.2195896	0.35352355	-0.25794047	0.114036374	-0.42011252	-0.085527785	0.30760166
-0.029906034	0.4929157	0.14149095	-0.20523298	0.05265065	0.22962855	-0.35433546	-0.2612996	0.1517012	-0.10889888	-0.30112755	0.18914893	-0.21160987	0.2833679	0.013903362	-0.1466317
0.20352891	0.2815491	0.18141496	-0.3784639	0.15421768	-0.064188085	-0.3655313	-0.14294732	0.07884844	-0.23474434	-0.15625396	-0.02507451	0.026919102	-0.079964966	-0.16271865	0.3155253
-0.15536675	-0.19793588	0.409387	-0.2916393	-0.20581347	-0.40344307	-0.23237908	-0.41491166	0.31463808	0.0010029932	-0.30917418	0.24044032	-0.23859732	0.22262177	-0.27352986	0.1181145
0.8334891	0.9814729	-0.92798036	0.21423061	0.83388114	0.98425907	-0.5088393	0.8302324	-0.9048453	-0.6422808	0.7402103	-0.78639	0.79236346	-0.75144166	0.6604727	0.19123851
-0.2962937	0.3647478	0.32274175	-0.22039768	-0.2889004	0.18316406	-0.13483092	-0.2841579	0.3507804	0.19325335	-0.3445452	0.24622238	-0.0897929	0.38446945	-0.22771639	-0.25005782
-0.5758339	-0.8747874	-0.8786052	0.804432	0.49726507	0.31228948	0.7120358	0.02032571	-0.8138494	-1.0121506	0.53897476	1.00571	-1.1026748	0.8790803	0.856915	-0.94054794
-0.53880084	0.34027997	0.70873845	-0.5046176	-0.5213132	-0.47648388	-0.7173669	-0.6510822	0.63692343	0.15683344	-0.6777399	0.6528842	-0.67891586	0.6600506	-0.52180165	-0.33311388
0.51293224	-0.906428	0.6639203	-0.4649401	0.25132406	-0.7806794	-0.2882418	-0.20432578	0.4442288	-0.12485363	0.58581394	-0.5801819	0.27794373	-0.79281855	-0.7007479	0.7137546
-0.3138615	-0.24825752	-0.1315789	0.20173043	-0.16087645	0.2497681	0.29748294	0.107229546	-0.0032102442	0.17648834	0.12759064	0.13264842	-0.10039818	0.13761343	0.11329191	-0.51281506
-0.61641115	-0.28945214	-0.052340176	0.26150984	-0.5773986	0.4715733	0.51401025	0.26778528	0.25882936	0.6219902	0.22802864	-0.29540062	0.5038938	0.016574219	-0.34738046	-0.49975094
-0.13302222	-0.22073713	-0.26069403	0.15258966	0.25363013	-0.015346117	-0.1144152	-0.17692529	-0.18826444	-0.6464132	0.092682175	0.4779328	-0.62959343	0.37350714	0.3661284	-0.47918454
-0.033796094	-0.1881062	0.11869115	-0.13663632	0.13179934	-0.26180527	-0.23374338	-0.37663183	0.12711263	-0.49899256	-0.11019084	0.3271839	-0.48605755	0.20832758	0.0044647893	-0.00064243784
-0.17525576	-0.05688259	0.4513903	-0.33781654	-0.37076172	-0.30198485	-0.17868899	-0.30561626	0.4943783	0.2637773	-0.2904629	0.19058613	-0.044686753	0.15775257	-0.5410203	0.18909334
-0.16415901	-0.15902865	0.38273108	-0.2699535	-0.1671532	-0.27198735	-0.23454762	-0.36416495	0.31162784	-0.070905894	-0.26451683	0.26481143	-0.31101653	0.25876787	-0.24532291	0.059575412
0.52042264	0.64424044	-0.75957614	0.15978326	0.61118704	0.6476881	-0.29832232	0.51863575	-0.76639146	-0.6930617	0.53164643	-0.24934345	0.087193124	-0.27853343	0.6910471	-0.023424927
-0.3612008	0.13080592	-0.6248505	0.55270386	-0.34383634	0.9125673	0.6231655	0.8396542	-0.2854542	0.5102518	0.82457757	-0.8196567	0.9689627	-0.45650652	0.099745214	-0.5564151
-0.19531819	-0.12387737	0.31121194	-0.19554895	-0.22217567	-0.23671599	-0.03583625	-0.31462196	0.30942196	0.12983347	-0.19122915	0.14527358	-0.06992548	0.16549966	-0.21961504	0.035949737
-0.5723812	0.4225792	0.7150816	-0.4896517	-0.57925826	-0.5301034	-0.7011198	-0.56014174	0.599669	0.22536482	-0.5525205	0.6069214	-0.6053895	0.6292487	-0.5173156	-0.21069612
-0.28716108	-0.27615747	-0.77454036	0.6364951	0.23179114	0.53581864	0.30298907	0.060631678	-0.6451662	-0.73252225	0.3509148	0.5983205	-0.7326696	0.6030441	0.7749324	-0.7558339
0.1959124	-0.28400612	-0.3973574	0.24091022	0.4635156	-0.039626658	0.0009306648	0.20605332	-0.48918426	-0.49731746	0.6357697	0.1537084	-0.2711911	-0.08076336	0.31378967	-0.13852525
0.07256844	-0.049278866	0.36489564	-0.29799876	-0.16494648	-0.13717853	-0.03892479	-0.051433776	0.33196872	0.29973096	-0.011587095	-0.26745382	0.34290543	-0.30288965	-0.45221433	0.3070671
-0.18312311	-0.38120142	-0.11806362	0.07683135	-0.27436766	0.18539712	0.33154428	0.33538148	-0.028854055	0.32755914	0.33089814	-0.26477656	0.34930122	-0.380966	-0.15776946	-0.12926787
0.1189901	-0.19425935	0.12279552	-0.15582405	-0.095128715	-0.16732697	0.08879922	0.17852163	0.12914924	0.21773224	0.353941	-0.56917393	0.5081229	-0.49890524	-0.3406431	0.3292942
-0.31318644	-0.36270335	0.20645797	-0.065945275	-0.40058398	-0.05827401	0.22110765	-0.03135782	0.24516718	0.41804236	-0.0076528876	-0.08589545	0.19916308	-0.039313886	-0.22909811	-0.07748872
0.5239654	0.043266587	-0.12524348	-0.20095067	0.46046007	-0.24936871	-0.2854354	0.39767033	-0.32532626	-0.35983238	0.6821392	-0.52955174	0.31962243	-0.74370855	-0.13793574	0.47377104
-0.6963983	-0.9575648	-0.93649054	0.8231114	0.2618267	0.4941436	0.9274416	0.09122487	-0.8216727	-1.0262415	0.66960865	0.9899489	-1.1210842	0.94218796	0.9048437	-1.0492837
-0.5384642	-0.4030611	0.20796603	0.08542727	-0.43978986	0.1107548	0.21438225	-0.13181607	0.33602586	0.3656176	-0.17927566	0.248007	0.05136934	0.3156513	-0.19707347	-0.35954386
0.96854943	1.1060667	-0.988711	-0.21495506	0.88208866	0.9006895	-0.8452281	0.763568	-0.89180094	-0.95169705	0.84938616	-0.84326655	0.97584766	-0.8094474	0.77866864	0.6176833
-0.23758487	-0.120553404	0.30104327	-0.15905516	-0.25275642	-0.06957193	0.01974968	-0.17778777	0.3154342	0.18011917	-0.23533823	0.20747407	-0.086913414	0.23610398	-0.20638174	-0.12861629
0.3372417	-0.2647814	0.50048876	-0.3960899	0.1934974	-0.47367045	-0.39672726	-0.17752771	0.3555312	-0.19104382	0.0023982117	-0.2692305	0.12943633	-0.36405993	-0.55043775	0.50030935
0.044965558	0.5089653	0.0858469	-0.23474342	0.099513575	0.19105999	-0.26985252	-0.11426448	0.025322722	-0.041571483	-0.22279663	-0.08204447	0.079640515	0.11080164	-0.12774216	0.03756823
-0.52799547	-0.46340805	-0.7182887	0.41462588	-0.6915063	0.8103744	0.69846016	0.7368483	-0.21793796	0.7801106	0.8769591	-0.98212177	0.85175693	-0.5450731	-0.2934616	-0.5048457
-0.81307	0.22411914	0.64975107	-0.27378914	-0.7041143	0.13551652	0.023698352	-0.3543431	0.6603442	0.50293934	-0.55759406	0.37096864	-0.15380424	0.5870374	-0.7136245	-0.514684
-0.20001246	-0.07164056	0.819786	-0.53211385	-0.2726205	-0.4694353	-0.5386858	-0.64939374	0.64919883	-0.068036236	-0.5267755	0.44085565	-0.52724	0.31186068	-0.544912	0.10934508
-0.21230343	0.16837183	-0.14939237	0.119891256	-0.042782646	0.37101218	0.10666846	0.02705029	-0.1041737	-0.040695995	-0.094085775	0.18637626	-0.061898664	0.27218226	0.09564753	-0.36272806
-0.3876277	0.09025762	0.11277179	-0.036954563	-0.2919494	0.2762896	0.123859055	-0.21587172	0.23704106	0.2090781	-0.2694949	0.2602047	-0.14081798	0.43863806	-0.12368022	-0.45830536
0.4539404	0.17445669	0.15140428	-0.30185542	0.23025995	-0.28771046	-0.36453316	0.002297888	0.024706177	-0.21230337	0.088139	-0.3606357	0.26276857	-0.41867355	-0.35636365	0.51457995
-0.09244908	-0.29509172	0.14894357	-0.047700826	-0.13488959	-0.14769892	0.016690714	-0.15510258	0.07126507	0.060006984	0.06343865	0.02117899	-0.024682127	0.047874503	-0.12695308	0.03147633
0.23061535	0.20077406	-0.031316087	-0.18740667	0.23337032	-0.09538877	-0.24432336	0.03887205	-0.1354688	-0.33002385	0.063273	-0.094036885	0.0303805	-0.16731775	-0.0838498	0.24482042
-0.38430387	-0.25890946	-0.07872469	0.09377979	-0.1810388	0.025023185	0.034347903	-0.3989883	0.07035234	-0.33893412	-0.26084614	0.6708474	-0.6591979	0.5952082	0.31186795	-0.555835
-0.60444194	-0.79269874	-0.53541464	0.39064336	-0.23621346	0.1914325	0.4045877	0.1051457	-0.335198	-0.049878478	0.39948055	0.45564827	-0.29207718	0.44276682	0.42705595	-0.6378365
-0.30199668	-0.542012	-0.3179846	0.344975	-0.21884467	0.27456313	0.48267412	0.38900313	-0.24109966	0.27616474	0.52487624	-0.2443174	0.31093818	-0.14423932	0.10998971	-0.3318374
0.32888377	0.3231164	0.26374236	-0.4725337	0.35593095	-0.2858718	-0.64399487	-0.35073036	0.13339165	-0.5451579	-0.27942604	0.101201415	-0.24895306	0.04966434	-0.20606902	0.33193284
0.029284686	0.14740515	0.112982236	-0.21577094	0.10681887	-0.17716779	-0.25925672	-0.3726734	0.082818694	-0.28884643	-0.28523403	0.34302002	-0.38740548	0.37309903	0.062308334	-0.026034953
0.025929589	0.014815924	-0.0367462	-0.029658495	-0.01279256	0.16738172	0.024491519	0.054687247	-0.04107247	0.063094825	0.05813118	-0.08558902	0.029628545	-0.05494855	-0.009029013	-0.022941738
-0.7062987	0.26683712	0.7947578	-0.5858532	-0.72072583	-0.281629	-0.32947567	-0.6587329	0.8487777	0.35982838	-0.7048576	0.5837637	-0.40327477	0.7434589	-0.6907632	-0.14942688
0.574055	-0.16638997	0.45168832	-0.51819915	0.52270865	-0.5558547	-0.687807	-0.20904006	0.14610553	-0.39694825	0.1734639	-0.4018943	0.08991215	-0.567213	-0.45728248	0.59289294
0.028085172	-0.35896283	0.12480304	-0.06946023	-0.092384964	-0.10057401	0.090969324	0.25445822	0.1166028	0.2432304	0.46985006	-0.43101686	0.3140603	-0.46799672	-0.32041615	0.16676088
0.026327481	-0.24559753	0.22534046	-0.21211988	-0.0037282389	-0.2627239	-0.1570616	-0.3081835	0.12550437	-0.16941564	-0.12909992	0.25242755	-0.2643481	0.12350794	-0.15521953	0.04960583
